256 100
CGGC 0.120954 0.050375 0.204970 -0.065968 -0.174641 0.317377 -0.221950 -0.190298 -0.135727 -0.476009 -0.242294 0.032106 -0.275369 -0.088061 0.200262 -0.063974 0.023319 0.117187 0.277794 -0.360753 0.170459 -0.153327 0.080690 0.042457 -0.105461 -0.195654 -0.310594 -0.467548 -0.049693 -0.095197 -0.000093 -0.553791 -0.262083 0.050248 0.056052 0.229506 -0.034212 -0.229423 0.137702 0.242821 -0.317059 0.135645 -0.504324 -0.165888 0.133447 0.161903 -0.262564 0.090233 0.101170 0.376837 0.023281 -0.043581 -0.013384 -0.090810 0.302122 0.030575 0.150469 0.127120 -0.055930 -0.197887 -0.444268 -0.586328 -0.205879 -0.096606 -0.458848 0.214069 -0.392214 -0.173834 0.354329 -0.146850 -0.196350 -0.069537 -0.043242 -0.488294 -0.311482 -0.041223 0.177018 -0.226861 0.087570 -0.198611 0.228646 0.248325 -0.113022 -0.259895 0.312964 -0.498301 -0.079807 -0.108981 -0.306523 -0.416142 0.064534 0.040726 -0.352770 0.070190 -0.244248 0.099052 -0.152656 -0.259723 0.162804 0.022635
GCCG 0.085469 0.252776 0.098238 -0.010637 -0.357047 0.255455 -0.284248 -0.180428 -0.017855 0.074588 0.151490 0.029371 0.033491 0.094849 -0.619486 0.235338 -0.270807 0.175353 0.124743 -0.169897 0.082271 -0.190241 0.296690 0.413281 0.190129 -0.050332 -0.061105 0.009974 -0.316958 0.631511 -0.275667 -0.206905 -0.069438 -0.318120 0.053234 0.071064 0.299644 0.056883 0.036180 0.253087 -0.514597 0.106190 -0.232685 -0.375253 -0.039145 0.055898 -0.283889 0.079311 0.084248 0.422829 0.223534 0.080105 0.276451 -0.155138 0.099464 -0.282536 -0.235482 -0.045321 0.426387 -0.035211 -0.068904 -0.456919 -0.020856 -0.426533 -0.114673 0.044824 -0.138806 -0.400546 0.243113 -0.331478 -0.209567 -0.314060 -0.232864 -0.188087 -0.303865 -0.177941 0.282285 -0.092741 0.107772 -0.143764 -0.078096 -0.005118 0.000485 -0.065168 -0.220295 0.037865 0.287140 -0.187150 -0.294262 -0.044097 0.191160 0.003776 -0.116293 -0.131590 -0.414337 -0.105002 -0.273287 0.173194 0.439541 0.064190
GCGC 0.108956 0.496218 0.024159 -0.223086 0.022079 0.242324 -0.250136 -0.373364 -0.170003 -0.119450 0.266556 0.161857 -0.152012 0.208500 0.235951 0.288399 0.053495 -0.056527 0.009448 -0.036989 0.207875 -0.383751 0.005487 0.158945 0.028142 -0.213159 -0.278953 -0.211792 -0.040724 0.257285 0.113674 -0.359004 0.069747 -0.414433 0.212344 0.067541 0.192631 -0.222024 -0.069896 0.384184 -0.450151 0.319660 -0.070085 0.068793 0.383932 0.184800 -0.079945 0.310727 0.103879 0.195938 -0.093226 -0.041385 0.203270 -0.153826 0.253355 0.148231 -0.359998 -0.061037 0.235517 -0.336170 -0.389487 -0.281487 -0.128912 -0.482978 -0.411011 -0.008983 0.234567 -0.293247 0.430228 -0.287211 0.004067 -0.120102 0.010810 -0.173005 0.022290 0.286456 0.183011 -0.646070 0.007438 -0.180158 0.048007 0.254559 0.065135 -0.029990 0.191009 -0.184576 0.095860 0.178047 -0.370136 0.002286 0.091781 -0.044449 -0.188648 -0.102901 -0.348662 -0.084244 -0.098943 0.236743 0.119018 -0.086303
GGCG 0.364363 0.211366 -0.061235 -0.459642 -0.436341 0.223778 0.040249 -0.049385 -0.259925 0.143927 0.191957 -0.074569 0.129447 0.332702 0.008505 0.134344 -0.087616 0.230087 -0.104878 -0.175300 0.420614 -0.010449 0.444041 0.221995 0.011910 -0.137815 -0.074901 -0.122098 -0.394012 0.160377 -0.091892 -0.574759 -0.245275 0.278735 0.440665 -0.162638 -0.043810 -0.300868 0.131596 0.426621 -0.141801 0.368577 -0.622127 -0.084549 0.100135 -0.213259 -0.348917 0.199368 -0.041097 0.049510 -0.096842 0.041718 0.197372 -0.320286 0.328034 0.162657 -0.163268 0.024580 0.063090 -0.249437 -0.490408 -0.428614 -0.153892 -0.416669 -0.120953 0.059273 -0.083688 -0.016381 0.298721 -0.344362 -0.057146 0.172681 -0.015472 -0.394565 -0.098423 0.139311 0.011708 -0.445869 0.022478 0.009645 0.136597 0.082818 0.031777 0.130501 -0.011528 0.069513 0.040856 -0.287414 -0.077241 0.078715 0.054656 0.357814 -0.083855 -0.165693 0.041295 -0.165157 -0.166587 0.179499 0.330337 -0.386346
CGCC 0.283728 0.472906 0.269911 -0.045193 -0.308690 -0.331635 -0.395157 -0.089074 0.004891 -0.175687 -0.174576 0.091651 -0.061322 0.121042 -0.104218 0.165909 -0.065969 0.047912 0.417801 -0.417905 0.128254 -0.279361 -0.133663 -0.004912 0.047938 -0.592013 -0.223542 -0.140448 -0.188228 0.050031 -0.030458 0.009338 -0.035671 0.039172 0.169465 0.204784 0.155001 -0.190172 -0.224482 -0.020178 -0.057260 0.129178 -0.072798 -0.364348 0.306012 0.362716 -0.185303 0.193631 -0.111166 0.097633 -0.228342 0.149023 0.065603 -0.028139 0.011183 -0.095333 -0.523109 0.015101 -0.057468 -0.201234 -0.285274 -0.063812 0.213739 -0.238369 -0.578922 0.284231 -0.075802 -0.020360 0.438509 -0.271607 -0.565619 -0.158868 -0.267888 -0.097098 0.012272 -0.272882 0.380927 -0.464252 0.088855 -0.065469 -0.352316 0.284302 -0.049149 -0.184951 0.018284 -0.142568 0.093428 0.205404 -0.115728 -0.352760 0.281778 -0.088225 -0.099075 -0.192015 -0.467224 0.074896 0.021418 0.176244 0.410654 -0.125866
TTTT 0.061278 0.178313 0.124249 -0.346193 -0.098447 0.376044 -0.255306 0.143363 -0.159434 -0.330992 -0.138736 -0.208251 -0.130323 -0.270784 -0.056056 0.330125 -0.051396 0.183626 0.002337 0.011430 0.042013 -0.340179 0.009888 0.365453 -0.001294 -0.125029 0.357848 0.116944 0.064287 0.282806 -0.160618 -0.179459 -0.333543 -0.061672 0.088526 0.332073 0.295060 -0.164985 0.161064 0.431639 0.150266 0.087544 -0.420712 -0.140750 -0.123859 0.174850 -0.323353 0.037764 -0.015146 0.142620 -0.318352 0.152982 -0.270126 -0.102982 0.187121 0.462330 -0.219113 0.074005 0.061364 -0.398000 -0.051934 -0.309139 0.308288 -0.067804 -0.033645 0.322852 0.168022 0.061436 0.062281 -0.038132 0.001005 0.157446 0.021738 -0.118448 -0.012205 -0.097990 -0.143332 -0.040567 -0.084282 -0.158961 -0.094418 0.385531 0.015688 0.158612 -0.059982 -0.164584 0.124774 0.303257 -0.048772 -0.117380 0.178958 -0.457851 0.073706 -0.299127 -0.049008 -0.133467 0.029427 0.040518 0.358625 0.342541
AAAA 0.092122 -0.230286 -0.003044 -0.135014 -0.345858 -0.081598 -0.338861 -0.149787 0.238065 0.028059 0.088029 -0.418912 -0.050248 -0.182660 0.111700 -0.067754 -0.105803 0.410006 -0.146287 -0.238256 0.073195 0.019260 0.235125 0.175221 0.056187 -0.046906 0.079829 -0.139719 0.113540 -0.085903 0.018113 -0.070928 -0.233999 -0.006466 0.110712 -0.040626 0.012996 -0.079651 0.226618 0.018439 -0.280710 0.214815 -0.052338 -0.350697 0.472357 -0.038284 -0.075345 -0.143291 0.105067 0.097914 -0.522995 0.233297 0.218371 -0.113486 -0.030854 0.076843 -0.086147 0.110098 0.291674 0.125202 -0.145548 -0.311326 0.198666 -0.043514 -0.194644 -0.068918 -0.199071 -0.037187 0.360709 -0.125185 0.059664 0.028702 -0.041985 -0.369191 0.112573 -0.016796 0.212027 -0.647586 -0.078799 0.104942 -0.050836 0.055979 0.148217 -0.436639 -0.413266 -0.353811 0.175120 0.037776 -0.262451 -0.011406 0.141702 -0.418550 -0.119598 -0.298498 0.018065 -0.157277 -0.145222 0.198732 -0.197894 0.200715
GCTG -0.169236 0.242749 -0.213527 -0.245174 -0.200873 0.603831 -0.104797 -0.451755 0.025237 -0.153007 -0.025840 -0.067236 0.029376 0.104536 0.004757 0.010724 -0.009199 -0.128287 0.162942 -0.213197 0.393159 -0.206763 0.352575 -0.071844 0.010929 -0.248574 -0.114981 -0.064044 -0.524427 0.745082 -0.194283 -0.331525 -0.001960 -0.290953 0.213514 -0.040179 0.101790 -0.293041 -0.369720 0.165977 -0.209832 0.090503 -0.019200 -0.200346 0.599659 0.004651 -0.190681 0.052864 0.073963 0.210205 -0.341291 0.384965 0.174656 -0.198809 -0.193073 0.145547 -0.279591 0.150202 -0.187624 -0.222357 -0.112110 -0.420653 0.429115 -0.260900 0.019901 0.291129 0.231100 -0.251618 0.048740 -0.151885 0.180052 0.041744 -0.200990 -0.200866 -0.291042 -0.358994 0.190711 -0.218946 -0.083838 0.131299 -0.043580 -0.104110 0.314968 -0.266036 -0.087836 -0.340880 -0.404027 0.055583 -0.367234 -0.281661 0.122925 0.136778 -0.226919 0.124210 0.111462 -0.111724 -0.134255 0.156408 0.114388 -0.061773
CAGC 0.066399 0.028152 0.009309 -0.075446 -0.066299 0.053650 -0.328445 0.127026 0.205271 -0.159252 -0.098927 0.508756 -0.164843 0.257721 0.137384 -0.053038 -0.039328 -0.248218 -0.043322 -0.517296 0.569333 -0.214025 -0.086189 0.254607 -0.155137 0.084464 -0.031348 -0.134093 -0.340541 0.136388 0.231328 -0.181007 -0.122436 -0.164493 0.109580 -0.217702 0.142408 0.005753 -0.146371 0.387668 -0.094654 -0.168621 -0.183051 0.102941 0.017469 0.246783 -0.306728 0.059003 -0.281817 -0.138103 -0.316681 -0.062414 -0.203980 -0.174411 0.622886 0.105872 -0.307978 0.044659 0.428811 -0.083524 -0.010142 -0.373643 0.238402 -0.007835 -0.082307 -0.107020 -0.036896 -0.229159 0.378212 -0.387483 0.005346 -0.262468 -0.154626 -0.461021 -0.053458 0.367810 0.126272 -0.532253 0.188636 0.082166 -0.171977 0.085720 -0.217923 -0.040617 -0.228772 -0.410390 0.006370 -0.242656 -0.397490 -0.585072 0.128808 0.105700 -0.075404 0.136472 -0.453643 -0.339362 -0.102025 0.034084 0.158759 0.236467
CCGG 0.038974 -0.146204 0.216342 -0.039776 -0.450402 0.342869 -0.448028 -0.008593 -0.000504 0.149169 0.005189 -0.152236 -0.055154 -0.106959 0.095605 0.442542 -0.063311 0.113760 0.229630 -0.490529 0.403569 -0.145112 0.139174 -0.057656 -0.504093 0.036728 0.272126 -0.467104 -0.415785 0.185241 -0.022234 -0.161743 -0.293178 0.035721 0.084789 0.082847 -0.148823 -0.164005 -0.010703 0.649164 -0.632402 0.149723 -0.033337 0.063207 -0.133338 0.375514 -0.097244 0.234115 0.106070 0.102805 -0.240476 0.205987 0.006881 -0.064530 0.080411 -0.275418 -0.120015 0.028032 -0.379274 -0.007238 -0.098282 -0.675596 -0.070638 -0.017449 -0.343037 0.156341 0.035569 -0.239182 0.342959 -0.216577 -0.269255 -0.314417 -0.071908 0.090320 -0.460969 -0.425733 -0.092675 -0.429742 0.357739 -0.035192 0.138417 0.248682 0.017322 -0.288121 -0.231959 0.447683 0.292014 -0.261140 -0.127812 -0.267294 -0.106360 0.137946 0.019797 -0.021639 0.080101 0.081129 0.216255 0.045168 0.320383 0.180372
GCGG -0.043982 0.203235 0.063837 -0.247996 -0.285150 0.414962 -0.213406 -0.319033 0.181338 -0.150859 -0.292611 -0.043873 -0.354666 0.067826 0.370179 0.678002 0.099044 0.146378 0.139016 -0.352805 0.200167 -0.061707 0.391791 0.103020 -0.118105 -0.056951 0.367602 -0.231797 -0.312830 0.474113 0.287640 -0.395261 0.000321 -0.062578 0.138849 0.104044 0.262527 -0.302685 -0.085447 0.350259 -0.531185 -0.102338 -0.122457 -0.101652 0.074927 0.151543 -0.267288 0.372547 0.217018 0.014272 0.071174 -0.094247 0.231143 0.067282 -0.028831 0.072027 -0.443857 0.062268 -0.096702 -0.069666 -0.324975 -0.334831 -0.196640 -0.222626 -0.220195 0.234287 0.090756 -0.223353 0.256175 -0.152564 -0.138308 -0.173121 -0.006448 -0.198971 -0.156260 0.075721 -0.032771 -0.499734 -0.130280 0.038582 0.419656 0.087036 -0.145610 -0.227028 0.302733 0.275989 0.115297 -0.229156 -0.379904 0.010659 0.224532 -0.209629 -0.078773 -0.228145 -0.189597 -0.440106 0.063896 0.421818 0.160723 0.060701
CCGC 0.187397 0.155018 -0.121948 -0.021123 -0.120714 0.385698 -0.436625 0.013009 -0.258203 0.115978 0.378683 0.055057 0.045960 0.169468 -0.063861 0.119647 0.014436 -0.122053 0.028648 -0.136343 0.140209 -0.326254 0.025106 -0.032768 -0.119913 -0.299093 -0.388898 -0.545295 -0.181657 0.147131 -0.094255 -0.066575 -0.291920 -0.210374 0.204851 0.091046 0.096400 -0.216154 0.016731 0.520969 -0.348629 0.256870 -0.073727 0.240907 0.234521 0.393595 -0.197244 0.555765 -0.166485 0.267379 -0.435812 0.066806 -0.181871 -0.130050 0.173807 -0.309721 -0.140073 -0.113434 0.106556 -0.056143 -0.071720 -0.567906 0.164189 -0.137501 -0.324394 -0.115500 -0.135296 -0.072335 0.599407 -0.287967 0.048624 0.045068 -0.137874 0.055418 -0.411199 0.032056 0.142481 -0.457144 0.314904 -0.267122 -0.134315 0.102849 -0.039324 -0.138936 -0.011896 -0.206054 0.293955 0.268162 -0.104745 -0.036900 -0.016322 0.191733 0.157256 -0.291183 -0.272613 0.323130 -0.310248 0.016462 0.290446 0.177896
CGCG 0.197730 0.217994 0.130493 -0.195991 -0.511925 0.095733 -0.306136 0.038660 -0.146624 0.091438 -0.078263 0.109037 0.077165 0.049137 0.131206 0.189455 -0.267828 -0.234044 0.197617 -0.119368 0.126083 0.004868 0.233925 0.005598 -0.085103 -0.417372 -0.091175 -0.090971 -0.114146 0.566615 0.284802 -0.161660 -0.074328 -0.136291 0.355814 0.000730 -0.068139 -0.198845 0.188596 0.326149 -0.202890 0.169542 -0.323283 -0.221286 0.116542 0.264368 -0.211500 0.358429 0.140885 0.140454 -0.187537 0.031639 0.215734 -0.043989 0.159456 0.083199 -0.514481 0.016201 -0.074838 -0.027501 -0.296282 -0.448489 -0.027209 -0.221653 -0.353114 0.036380 -0.208951 0.065614 0.459351 -0.435588 -0.398832 0.021575 -0.131662 -0.419114 -0.131826 0.014923 0.068533 -0.493429 -0.009546 -0.331188 -0.117837 0.179290 0.205632 -0.080302 0.135011 -0.393697 0.295345 -0.023780 0.015852 -0.232403 -0.024575 0.158727 -0.037864 0.051751 -0.060857 -0.277236 -0.439633 0.474848 0.236554 -0.230368
GCAG 0.085822 0.501364 -0.209483 -0.460791 -0.215743 0.103276 -0.149913 -0.214596 -0.191268 -0.114886 0.208016 0.048972 -0.263748 -0.074689 0.044550 0.602330 -0.086287 0.250994 -0.106448 -0.363941 0.337489 -0.278561 -0.036558 -0.245419 0.082857 0.060665 -0.019942 0.038277 0.021437 0.309519 -0.062114 -0.276006 0.296345 0.209999 -0.149098 -0.295801 -0.120222 0.130211 0.013367 0.566449 -0.146567 -0.320810 -0.264799 -0.299618 0.485413 0.169011 -0.047468 0.070095 0.152933 -0.075887 -0.412698 -0.073883 0.131404 -0.114679 0.043861 -0.143480 -0.188389 0.246061 0.456637 0.033129 0.022538 -0.603963 0.119157 -0.242568 -0.211896 0.312225 -0.145130 -0.258246 0.031028 -0.499553 -0.187441 -0.034544 -0.297981 -0.388263 -0.439358 0.198171 0.176600 -0.334687 0.031466 -0.385675 0.155963 -0.051026 0.397044 0.019184 0.098203 0.127203 -0.165188 -0.071626 -0.218289 -0.293863 0.096274 0.087705 0.034074 -0.057142 -0.439250 -0.083254 0.114773 -0.042192 -0.046181 0.111936
CTGC 0.108531 0.111357 -0.078918 -0.336369 -0.190089 0.265238 -0.641662 -0.130254 -0.360660 -0.083989 -0.318752 0.136533 -0.242609 0.437280 -0.058880 0.021615 -0.121025 -0.139720 0.089184 -0.352382 0.091130 0.080327 -0.243677 0.348965 0.273647 0.290972 -0.155296 -0.288339 -0.053243 0.135875 -0.061458 -0.354140 -0.269925 -0.025034 0.370325 -0.075816 -0.290730 0.065323 -0.096486 0.292398 -0.503936 0.520276 -0.020810 0.195254 0.397178 -0.010018 -0.303278 -0.069548 -0.201801 -0.029829 0.030801 0.062527 0.079358 -0.356041 0.013305 0.239626 -0.539708 0.093783 -0.064003 -0.094908 -0.135349 -0.400776 0.493447 -0.193077 -0.249074 0.393646 -0.033893 -0.426017 0.189179 0.021402 -0.080333 -0.356828 -0.087524 0.161960 -0.270988 -0.040375 0.055434 -0.196781 0.145326 -0.539492 0.090879 -0.062745 -0.048268 -0.117032 0.052515 -0.393312 -0.102344 0.091290 -0.129601 -0.297435 0.233530 -0.066091 0.196899 -0.051449 -0.285082 -0.015715 -0.108210 0.359846 0.042643 -0.086843
GGCC 0.326386 0.220363 -0.062313 -0.220666 0.094670 -0.081504 -0.060140 -0.128526 -0.246539 -0.021800 0.067035 -0.139915 -0.010977 0.308683 -0.103103 0.210410 -0.110493 0.421071 0.071794 -0.330133 0.081774 0.177746 0.158014 0.066772 -0.201305 -0.297407 -0.215060 -0.147705 -0.362990 -0.186292 -0.161959 -0.476878 -0.183013 0.404452 0.012726 0.276406 0.021508 -0.422313 -0.439521 0.044383 -0.207364 0.284539 -0.518197 -0.111977 0.366518 0.000841 -0.511306 0.348494 -0.397618 0.107481 -0.386642 0.013678 0.082703 -0.213283 0.143245 -0.131809 -0.275513 0.152539 0.381348 -0.098673 -0.476563 0.075590 0.219535 -0.366547 -0.036816 0.310704 0.121698 -0.173998 0.120097 -0.000813 -0.400365 -0.034482 -0.141889 -0.249942 -0.060448 -0.073266 0.415253 -0.544264 0.114940 0.203915 -0.165450 0.061816 -0.196302 0.090308 0.102362 0.265846 -0.115223 -0.026152 -0.278061 -0.271691 0.432043 0.007580 -0.174758 -0.355769 -0.306338 0.021765 -0.330062 0.146411 0.553153 0.189903
GCCA -0.428996 0.141264 -0.111077 -0.251937 -0.346381 0.169891 -0.277431 -0.080808 0.351640 0.059178 0.078945 -0.085012 -0.223371 -0.004013 -0.081254 0.566864 -0.073502 -0.151838 0.118479 0.114270 0.279599 -0.232875 -0.072239 0.078558 0.341599 -0.239767 -0.509874 -0.244113 -0.064403 -0.031404 -0.149883 -0.652719 -0.595191 -0.114096 -0.088347 0.173437 0.404599 0.130077 -0.127214 0.035610 -0.361068 0.101253 -0.308728 -0.551943 0.114912 0.386668 -0.169236 0.205382 -0.084592 0.119243 -0.217590 0.189652 0.030660 0.085002 -0.015973 -0.164655 -0.256536 -0.004026 0.163928 -0.014377 -0.022745 -0.051140 0.283653 -0.131403 -0.177943 0.222541 -0.391618 -0.391667 0.081627 -0.144084 -0.182306 -0.150281 -0.244139 -0.070784 -0.085521 0.110648 0.486510 -0.341407 0.164657 -0.239781 0.077888 -0.034913 -0.065512 0.193985 -0.157965 0.258907 0.176158 -0.204074 -0.493882 -0.117336 0.080857 0.088952 -0.404878 0.327493 -0.524497 -0.004948 -0.265960 0.202081 0.389894 -0.191828
TGGC 0.105315 -0.234122 -0.392403 -0.413906 -0.408589 0.405322 -0.307600 -0.130585 -0.303255 -0.167592 0.065128 0.369365 -0.244336 0.145117 0.094425 -0.163245 -0.146681 0.024700 0.029977 -0.225110 0.218569 -0.189379 0.213066 -0.074267 0.083989 -0.264206 -0.071708 0.024600 -0.190500 0.193402 0.107968 -0.609946 -0.062756 0.045513 0.171683 0.311777 -0.212620 -0.104121 0.078702 -0.251677 -0.164055 0.286475 -0.290745 0.068366 0.281099 0.120119 -0.431969 0.005903 0.226280 0.442633 -0.128386 0.260423 -0.096678 -0.093731 0.535445 -0.177974 -0.149362 -0.316364 0.119779 -0.414160 -0.358869 -0.443953 -0.225600 -0.167572 -0.429262 0.144099 -0.259074 -0.225718 0.339508 0.290244 -0.132603 -0.202124 0.138163 -0.419725 -0.073859 -0.069435 -0.130858 -0.235821 -0.094633 -0.178124 0.184872 -0.213823 0.140343 0.054432 0.260158 0.047426 0.007651 -0.137345 -0.260250 -0.424421 0.532657 -0.236470 0.085212 -0.196044 -0.322074 0.091905 -0.171710 -0.364582 0.269167 0.124808
CCAG 0.094462 0.313194 -0.474179 -0.341754 -0.279066 0.087177 0.021814 -0.209619 -0.159074 0.051275 0.291359 0.011897 -0.207101 -0.338955 -0.038305 0.748017 -0.119387 -0.019568 -0.041630 -0.420602 0.324662 -0.122712 -0.166210 0.146195 0.042897 -0.137400 0.073307 0.051336 0.042440 0.107602 -0.176414 -0.297808 0.046264 0.055188 -0.044493 0.093764 0.127772 0.234537 -0.151821 0.282874 0.075547 0.125755 -0.043892 -0.201694 0.213860 0.307232 0.127957 0.253061 -0.276585 -0.175015 -0.670003 -0.248061 0.128164 -0.180260 0.336874 -0.063776 0.169230 0.041978 0.114361 0.283744 -0.038150 -0.620810 0.274864 0.445858 -0.254432 0.367253 -0.056539 -0.129194 0.661907 -0.324859 -0.218087 -0.323910 -0.203549 -0.064311 -0.135276 0.119210 -0.177846 -0.009949 0.525963 -0.164009 0.024325 0.126943 0.305063 -0.114776 0.149193 -0.176099 0.000913 -0.184615 -0.472152 -0.391999 0.265607 0.159761 -0.201802 -0.195912 -0.416245 -0.245710 -0.086176 0.049172 0.110198 -0.145349
CTGG 0.055718 0.246881 0.093179 -0.258861 -0.290396 0.320834 -0.091613 0.056290 0.037842 0.062082 0.154097 0.225837 -0.295050 -0.214969 0.035486 0.110973 0.090821 0.028557 0.046263 -0.668930 -0.033982 -0.109904 0.300562 0.200931 0.297619 -0.087061 0.168447 -0.164440 -0.577680 0.277811 0.072692 -0.122468 -0.016882 0.103146 0.175915 0.336874 -0.109676 -0.190208 -0.017169 0.198956 -0.761106 0.282313 -0.012935 0.184144 0.220624 0.381263 -0.596346 -0.323721 -0.133231 -0.027141 -0.023749 0.087797 -0.040696 -0.510385 0.383367 0.226807 -0.544059 0.229507 0.017004 0.230897 -0.217473 -0.326445 0.387561 -0.202643 -0.083162 0.484220 -0.038799 -0.082554 0.124904 0.174647 0.161843 -0.106630 -0.073475 0.159427 0.053202 -0.031361 0.225510 -0.304083 -0.115379 -0.620848 0.186290 -0.093793 0.408721 -0.242619 0.009185 0.031250 -0.244189 -0.275110 -0.220195 0.016205 0.330933 0.148081 0.151320 0.063346 0.055671 0.254099 -0.254188 -0.015794 0.018930 -0.319385
CATC -0.129849 0.171427 -0.288515 0.195125 -0.473244 0.324497 -0.317001 0.030490 0.197813 0.285157 -0.130719 -0.256009 -0.337724 0.166468 -0.128463 -0.030870 -0.022209 -0.086640 0.054678 -0.528218 -0.230332 -0.271584 -0.039101 0.246049 0.039845 -0.275985 -0.311643 -0.048614 0.001027 0.073758 -0.175457 -0.220316 0.113935 0.097675 0.002468 -0.147027 0.342095 -0.049407 0.120417 0.624513 -0.196979 0.422816 -0.341817 -0.034219 -0.134627 0.601351 -0.174696 0.222132 -0.395892 0.006634 -0.194538 0.253558 0.122605 -0.089329 0.315356 0.116474 0.132488 0.089864 -0.188667 -0.470143 -0.013911 -0.101761 0.212495 0.046626 -0.436623 0.132105 -0.124972 0.062591 -0.207848 -0.415331 -0.388105 -0.441220 0.196056 -0.339039 0.003201 0.247671 0.078664 -0.553950 -0.039964 0.073942 0.215017 -0.082705 0.043728 0.055235 -0.140057 -0.235541 -0.173652 -0.091673 0.030112 -0.281994 0.065634 -0.073935 0.017969 -0.243680 -0.314181 -0.021179 -0.196999 0.167958 -0.082207 0.324078
GATG 0.068911 0.543119 -0.248414 -0.135641 0.045630 0.360252 -0.499723 0.082310 0.011666 -0.316958 0.094667 0.216199 -0.200573 0.163318 0.026309 0.299936 -0.371594 0.217839 -0.277946 -0.176327 0.314435 -0.041138 0.539395 -0.162125 -0.185141 0.229793 -0.143594 0.159349 -0.101265 -0.182566 0.022555 0.041362 -0.032438 0.056887 0.074504 0.232699 -0.082669 -0.229411 0.259012 -0.260063 -0.327319 -0.076703 -0.177878 -0.185791 -0.083168 0.074416 -0.068221 0.109387 -0.027935 0.126436 -0.598638 0.294608 0.438399 -0.353690 0.120219 -0.146910 -0.468493 -0.005321 -0.153468 -0.333938 -0.033788 -0.283406 0.010619 -0.276006 -0.013101 0.079762 -0.019881 -0.470699 0.223612 -0.251906 0.213402 0.060566 -0.281022 -0.294533 -0.337191 -0.371690 0.102358 -0.013501 -0.171112 -0.337241 0.163031 0.218784 -0.063065 -0.137665 -0.127135 -0.154998 0.073006 0.024502 -0.567453 -0.149285 0.194586 -0.144166 0.040933 -0.214334 0.369822 -0.014337 -0.174558 0.206632 0.219636 -0.372899
AAAT -0.061700 0.091809 0.169924 0.022985 -0.345378 -0.052128 -0.362744 -0.124859 0.381488 0.069795 -0.200185 -0.319131 -0.036645 -0.089669 0.039648 -0.174920 0.019873 0.415015 -0.522673 -0.178964 -0.090531 0.240609 -0.231711 -0.043166 0.037534 -0.095821 -0.172306 0.031615 0.061311 0.073501 0.333308 -0.164641 -0.092497 0.102893 -0.275813 0.140641 0.131936 -0.026563 0.430027 0.346452 -0.088775 0.121992 -0.007348 -0.492730 0.449588 0.065616 -0.135650 0.087952 -0.250341 0.041203 -0.293707 0.243391 0.116309 -0.114653 -0.004792 0.218880 -0.323771 0.239405 0.088542 -0.098095 -0.171924 -0.652221 -0.064826 0.196437 0.130770 0.040576 -0.301625 -0.265982 0.127850 -0.119182 0.067086 0.002004 -0.193320 -0.032562 0.202722 -0.168035 -0.047757 -0.567236 -0.101117 0.073017 -0.176468 0.193306 -0.165648 -0.048843 -0.232195 -0.155505 0.290974 -0.237679 -0.320085 -0.041511 0.269017 -0.587678 -0.119167 -0.433981 0.017094 0.204550 -0.477076 0.226826 0.014457 0.008790
ATTT 0.173954 0.035440 0.018833 -0.450043 -0.066752 0.294078 -0.152428 0.128864 -0.030994 -0.157982 -0.126012 -0.378265 -0.151421 -0.083760 -0.252876 0.207294 -0.061519 0.199611 -0.221949 -0.006221 0.282775 -0.074244 0.294039 0.075738 0.215667 -0.189332 0.127952 -0.140903 0.288061 0.411670 -0.136528 -0.111164 -0.580049 -0.055588 0.037648 0.506873 0.276743 -0.317152 0.281100 0.366206 0.128426 -0.171742 -0.437097 -0.135660 -0.028023 0.197808 -0.425202 0.197765 -0.274303 -0.196167 -0.344389 0.081380 -0.151807 0.052370 0.221191 0.258523 -0.235775 0.194330 -0.138527 -0.206641 0.134197 -0.242807 0.073760 0.193873 0.285916 0.135007 0.083935 0.039084 -0.028292 -0.015126 0.208792 -0.044908 0.129933 -0.430390 -0.327569 -0.128972 -0.131718 -0.323259 -0.037983 -0.330917 -0.001280 0.092451 0.102682 0.193581 -0.035345 -0.356002 0.258193 0.279821 -0.026658 0.038331 0.005174 -0.112348 0.343240 -0.151694 -0.146414 0.067753 -0.308345 0.214464 0.369598 0.515944
GAAA 0.416932 -0.407003 -0.120447 -0.036003 0.050273 -0.147198 -0.328269 -0.103599 0.395195 0.259875 0.208993 -0.323839 -0.028582 -0.030729 -0.006864 0.360277 0.084868 0.287036 -0.064647 -0.114329 -0.148402 -0.151506 0.183750 -0.063166 0.188894 0.202796 0.115346 -0.160631 -0.075991 0.058705 -0.192656 -0.309846 -0.110549 0.163499 0.445021 0.276068 0.086666 -0.050512 0.052051 -0.119175 -0.341586 0.212889 -0.470972 -0.063953 0.354946 0.058748 0.091398 -0.200291 0.132478 0.449446 -0.463851 0.176683 0.399389 -0.063345 0.026934 0.017357 -0.314885 0.306344 0.115485 0.121101 0.131614 -0.346140 0.000358 -0.165858 -0.101120 0.017870 -0.271683 -0.040359 0.417708 -0.221025 0.037596 -0.068190 -0.292377 -0.323298 -0.028161 0.096168 -0.119499 -0.741281 -0.248045 0.031012 0.015352 0.051839 0.253450 -0.246795 -0.467966 -0.317353 0.282461 0.058450 -0.339558 -0.278426 0.143240 -0.446971 -0.246590 -0.106030 0.234425 -0.232724 -0.230091 0.221290 -0.200974 0.187685
TTTC -0.082172 0.204267 0.008425 -0.569711 -0.108484 0.143931 -0.447149 0.260829 -0.112662 -0.347107 -0.017356 -0.348048 -0.233534 -0.196037 -0.146652 0.411828 -0.054284 0.048041 0.121027 -0.207304 -0.067534 -0.421562 -0.019850 0.402107 -0.139531 -0.379919 0.129422 0.352801 -0.317084 -0.170369 -0.318959 -0.321305 -0.248857 -0.128861 0.140718 0.371762 0.465104 0.200875 0.235890 0.528459 -0.042141 0.083372 -0.392007 -0.027130 0.127650 -0.195452 -0.325754 0.079954 -0.035948 0.193425 0.027181 -0.131402 -0.076170 -0.129991 0.370811 0.246458 -0.323573 -0.382081 -0.155089 -0.473381 -0.101079 -0.628488 0.304566 0.122331 -0.053853 0.115881 -0.066965 0.080717 -0.022579 -0.279916 -0.126126 -0.046749 -0.161259 -0.083379 0.190462 -0.114794 0.125525 -0.282801 -0.000555 0.178669 -0.198967 0.141734 -0.183396 0.067926 0.070697 -0.189500 0.089761 0.184251 0.001743 0.095067 0.272365 -0.403390 0.285096 0.185397 0.200238 0.009230 0.168987 0.185980 0.250162 0.418380
GGCA 0.052263 -0.076866 0.118546 -0.339988 -0.059166 0.275197 -0.415910 -0.439904 -0.294361 0.219246 0.069852 -0.413998 -0.094626 0.153599 0.498438 0.397195 -0.003972 0.388935 0.010104 0.036966 0.180081 -0.031851 0.174931 0.558083 0.049605 0.060083 -0.199754 -0.082328 -0.373566 -0.167725 -0.178652 -0.265918 0.126551 0.355331 0.102712 -0.155718 -0.081823 0.016211 0.058864 0.176375 -0.141033 0.253939 -0.462790 -0.395462 0.225512 -0.010285 -0.376952 0.054680 -0.383037 0.014447 -0.307666 0.109158 -0.044909 -0.065120 0.306953 -0.096752 -0.220537 0.215420 0.207529 -0.128986 -0.280968 -0.291124 -0.249691 -0.184794 -0.286199 0.243862 -0.051487 -0.590194 0.221866 -0.187314 0.029211 -0.074399 0.049316 -0.168056 -0.144931 0.000750 0.019790 -0.592159 0.000422 0.157462 0.301286 0.096757 -0.227303 0.167991 0.081139 0.207669 -0.468483 0.103741 -0.448272 -0.178202 -0.073358 0.615941 -0.256081 -0.037993 -0.085200 -0.030623 -0.571619 -0.235802 0.194468 0.238079
TGCC 0.129749 0.345243 0.194689 -0.388338 0.019712 -0.019052 -0.392742 -0.292087 0.117631 -0.257159 0.179348 0.117920 -0.013741 0.003726 -0.260802 0.100563 -0.263495 0.144741 0.045249 -0.676543 0.106727 0.045258 0.336643 0.005093 0.184520 -0.045153 -0.036317 -0.054393 -0.377097 0.081635 0.183785 -0.449162 -0.248766 0.080971 -0.225182 0.385442 -0.021099 -0.154694 -0.360578 -0.365609 -0.230210 0.231794 -0.319546 0.120683 0.229914 0.332074 -0.051671 0.177032 -0.175403 0.159861 -0.029661 0.182208 0.044542 -0.085904 -0.099036 -0.078466 -0.182494 -0.266523 0.165880 -0.366356 -0.273957 -0.171705 0.179873 -0.534269 -0.325338 0.263421 0.130030 0.167285 -0.133677 -0.234155 -0.325520 -0.264233 -0.224851 0.195810 -0.120798 0.104884 0.292958 -0.214609 0.513878 -0.203608 -0.335568 0.046227 -0.006088 -0.169969 -0.343902 -0.119862 -0.015557 0.268620 -0.282535 -0.421884 0.194202 -0.246764 -0.082082 -0.535419 -0.438553 0.135816 0.137857 0.045956 0.564865 0.421465
TGAT 0.092146 0.259995 -0.304338 -0.137494 -0.246514 0.324138 -0.779401 0.087088 -0.076273 -0.107548 0.308060 0.018926 0.180727 -0.131111 -0.114668 -0.083574 -0.115773 -0.135697 0.084781 -0.410224 0.147101 0.096401 0.363154 -0.083600 0.259066 -0.051965 -0.054024 0.002814 0.053072 0.011150 -0.133603 -0.111313 0.243315 -0.272214 -0.027284 0.359895 -0.089958 -0.431589 -0.021172 0.244109 -0.163852 0.221472 -0.600171 -0.159791 0.145515 -0.043189 -0.315990 0.620087 -0.048687 -0.181436 -0.067382 0.015237 0.090075 0.053124 -0.123784 0.311046 -0.344839 0.061989 0.060154 -0.354577 0.115005 -0.371278 -0.120693 -0.102500 0.113549 0.353909 -0.056666 0.011965 -0.075604 -0.277402 0.017922 -0.306959 -0.374500 0.100254 0.449271 -0.274372 -0.208923 -0.119673 -0.219662 -0.018986 0.395789 -0.046391 -0.060841 -0.013836 -0.369421 -0.187028 0.169003 0.048309 -0.519877 -0.271851 0.272578 0.079701 -0.065404 -0.155486 -0.064286 -0.113312 0.060291 -0.319102 0.102407 -0.107487
ATCA 0.174052 0.087012 -0.101719 -0.066995 -0.334455 0.043442 -0.163109 -0.265330 0.002318 0.036680 0.144737 -0.312415 -0.163825 -0.055735 0.166100 0.129537 -0.125685 0.022714 0.537724 -0.581741 0.457626 -0.047127 -0.027705 0.269231 0.423132 -0.096530 -0.060902 -0.206326 0.207716 -0.184501 0.086758 -0.298249 -0.056641 -0.062047 0.254071 0.058819 -0.052153 0.093420 0.207408 0.084345 -0.297538 -0.104142 -0.246332 -0.310485 -0.136174 0.516666 0.229762 0.307996 -0.234560 0.378069 -0.265538 0.112742 0.267886 -0.211435 0.348387 -0.081783 -0.194001 0.002793 0.002800 0.028925 -0.085026 -0.339282 -0.060133 0.317372 -0.012688 0.046003 0.279461 -0.401627 -0.240349 -0.581610 0.260129 -0.348099 -0.072201 -0.460050 0.101759 -0.086360 0.414031 -0.353928 -0.337044 0.157749 -0.293986 -0.003786 -0.074008 0.270611 -0.016524 -0.234813 -0.226195 -0.071232 -0.132160 0.051863 0.155363 0.000773 0.404308 -0.242527 -0.133090 -0.034231 -0.112938 0.065801 0.191703 0.024927
TGAA 0.403350 -0.023292 -0.331403 -0.374989 -0.080271 0.221153 -0.710462 0.025463 0.187239 0.185331 0.491733 0.110877 0.212896 -0.301785 0.018444 -0.035923 -0.128436 0.112623 0.266574 -0.436827 -0.000149 -0.200349 0.394627 0.357002 0.017991 0.042801 -0.023526 0.094945 0.171486 0.087545 0.077833 -0.359061 -0.221638 0.204502 -0.220697 0.123417 -0.070737 -0.587819 -0.352122 0.185590 -0.219118 0.315522 -0.198035 -0.471475 0.032820 -0.123453 -0.007942 0.270701 0.162147 0.088851 -0.385472 -0.032919 -0.009477 0.332672 0.143705 0.102744 -0.430779 -0.126248 0.139895 -0.127213 -0.041766 -0.191656 -0.015003 -0.113168 -0.031083 0.315492 -0.463196 -0.449913 0.024686 0.074176 0.036533 -0.274440 -0.338708 -0.204111 0.128641 -0.045166 -0.262235 -0.299174 -0.276181 -0.397146 -0.186514 -0.116424 -0.135551 -0.481016 -0.394884 -0.267995 -0.110626 0.025248 -0.181635 0.163037 0.138126 0.006006 -0.213553 -0.032477 0.069318 -0.147113 0.135099 0.239452 -0.273135 0.004418
TTCA -0.028802 -0.195886 -0.287080 -0.067019 -0.085168 0.408250 -0.396759 -0.100909 0.074029 0.006257 0.213175 -0.145755 -0.315646 -0.269955 -0.011114 0.503145 -0.036334 -0.047311 0.317609 -0.490616 -0.086589 -0.367829 -0.374160 0.393997 0.076920 -0.365026 -0.057680 -0.088261 -0.097387 -0.196139 0.497058 -0.188302 -0.183541 -0.104679 0.468719 0.077970 -0.006593 0.018154 0.192095 0.104469 -0.001706 0.083070 0.043432 -0.074810 -0.030709 -0.030936 -0.340856 0.219623 -0.037928 0.306154 -0.315709 0.155417 0.390125 -0.106899 0.547939 0.074709 -0.135262 0.198623 -0.065044 0.074117 -0.200226 -0.655630 -0.068235 0.057901 0.152257 0.243148 0.052805 -0.220205 -0.412739 -0.594613 -0.157962 0.127686 -0.070327 -0.169906 0.030219 0.152833 0.480078 0.047918 -0.292301 -0.135188 -0.106762 0.177494 -0.108708 0.250926 -0.195394 -0.162393 -0.203267 0.211370 0.047868 -0.075489 0.204687 0.016975 0.024712 -0.473726 -0.157333 -0.422064 0.065502 -0.014759 0.471363 0.151755
TCGC 0.176513 0.800901 -0.097424 -0.276763 -0.096488 -0.175105 -0.361065 -0.265440 -0.192936 -0.052295 0.155181 0.094217 -0.122547 0.505273 -0.034764 0.273564 0.220478 -0.347461 0.256714 -0.417886 -0.210670 -0.348217 0.058991 0.229750 0.205778 -0.411435 -0.324800 -0.238081 0.149277 0.209124 0.071994 -0.329685 -0.177662 -0.456198 0.039875 -0.129704 -0.180738 -0.372452 0.056942 0.373983 -0.351570 0.181038 -0.174083 0.099900 0.022217 0.217220 -0.016496 0.233629 -0.144933 0.204916 -0.220388 0.100822 0.061227 -0.045897 0.409437 0.012364 -0.774467 0.107513 0.093774 -0.128782 -0.268370 -0.372051 0.023244 0.028001 -0.254886 0.128097 -0.229360 0.041241 0.447330 -0.305691 0.147959 0.240477 0.150905 -0.152810 -0.024766 -0.030608 -0.107326 -0.120968 0.128164 0.068720 -0.096908 0.095404 0.080305 -0.187087 0.010958 -0.284930 0.181616 0.344234 0.115947 -0.034772 0.154564 -0.182663 -0.285198 -0.099958 -0.036335 0.110287 -0.393494 -0.227442 0.554051 0.258110
GCGA 0.071260 0.321109 0.046744 0.038748 -0.319978 0.442267 0.164618 0.085968 0.015862 -0.001079 0.206617 -0.082535 -0.143252 -0.056966 0.117024 0.229354 0.131538 0.312980 -0.342532 -0.259737 0.090012 -0.064345 0.258104 -0.024101 0.073628 0.157299 -0.005083 0.186468 -0.170173 0.180940 0.191393 -0.554881 0.217197 -0.124248 0.452837 -0.147461 0.345263 -0.263765 -0.008953 0.106929 -0.415031 -0.025045 -0.411899 -0.346744 0.374347 -0.018418 -0.302947 0.201977 0.160702 0.370545 -0.311415 -0.206883 0.128306 0.216080 -0.157950 -0.127835 -0.446689 -0.025909 0.075932 -0.428405 -0.227967 -0.356350 -0.428354 -0.149652 -0.234728 0.332246 0.083711 -0.097568 0.404220 -0.208305 -0.232722 -0.468848 -0.150293 -0.174504 0.221236 0.070055 0.444933 -0.436363 0.211225 -0.126438 0.233257 0.053688 -0.097944 0.107863 0.124804 -0.619372 -0.002217 -0.102945 -0.354234 0.399827 0.054956 0.028424 0.134489 0.250046 -0.282840 -0.314152 0.018289 0.443510 0.141342 -0.154002
CAGG 0.210074 0.266379 -0.367268 0.120984 -0.282273 -0.007749 0.106787 -0.311355 0.077505 0.100248 -0.020036 0.514619 -0.306400 -0.077612 0.104161 0.141693 -0.379082 -0.041196 0.094930 -0.391615 0.308879 0.018112 0.078558 0.366932 -0.084477 -0.051975 0.287133 0.064331 -0.175502 0.098137 -0.262438 0.168458 -0.350532 0.161744 0.241515 -0.058953 0.104709 -0.464822 0.139777 0.471087 -0.138842 -0.124439 0.397927 -0.079260 0.224173 0.283123 -0.217842 0.056641 -0.039129 0.320595 -0.202798 -0.200022 0.135407 -0.123147 0.265493 0.153745 -0.355926 0.304853 0.076235 -0.245059 -0.325683 -0.422859 0.271724 -0.158386 -0.113247 0.187263 -0.400719 -0.083056 -0.171773 -0.251373 0.395015 -0.190892 -0.272982 -0.470671 0.020198 0.121116 0.053818 -0.641436 0.707513 -0.085605 0.234770 -0.077151 0.024564 0.211290 -0.097910 0.093920 0.039535 -0.309847 -0.539765 -0.405087 -0.031064 -0.053004 0.106661 0.080415 -0.099221 -0.417731 0.077511 -0.114682 0.228539 0.306852
CCTG -0.021045 0.131470 -0.201991 -0.139169 -0.264051 0.526507 -0.157819 -0.279295 0.283267 -0.065102 -0.104074 -0.290917 -0.090362 -0.203698 0.074148 0.052353 -0.110733 -0.193888 0.084233 -0.019556 0.242825 -0.138832 0.050291 0.053727 -0.281952 -0.111199 -0.321845 -0.363574 -0.415550 0.503033 -0.213163 -0.524635 -0.042881 -0.042414 0.287668 0.013176 -0.314310 -0.247392 -0.570804 0.478641 0.034205 0.058144 0.571891 -0.146994 -0.035585 0.177370 -0.309451 -0.135143 -0.417512 0.150387 -0.376330 0.101238 0.345145 -0.544329 -0.093415 -0.010585 -0.239024 0.060424 0.160298 -0.065261 0.041582 -0.436836 0.199041 -0.180706 -0.130141 0.412422 0.039035 0.117587 0.302874 -0.215487 -0.004550 -0.221339 -0.369376 -0.177329 0.159919 -0.377092 -0.269882 -0.275719 0.113807 -0.279969 0.097374 0.150102 -0.195633 -0.047573 -0.104972 -0.476596 -0.243887 0.112234 -0.412578 -0.227024 0.258462 -0.065516 0.115670 0.094835 0.228613 0.429428 0.057969 0.054973 0.242566 -0.049298
CGAT -0.249737 0.162197 0.078512 -0.232029 -0.483076 0.436671 -0.204888 0.192113 -0.226370 -0.348551 -0.091822 -0.221247 0.308677 0.092102 0.038527 -0.176981 -0.232907 0.053362 -0.047850 -0.215264 -0.132963 -0.083198 0.023063 -0.224934 0.155432 0.057381 0.295456 -0.285828 0.007058 -0.031490 -0.107741 0.074895 0.259541 -0.351704 0.226144 -0.025127 0.019035 -0.489783 0.041266 0.185187 -0.207850 -0.007981 -0.734049 -0.520464 0.395191 0.434252 -0.569554 0.466377 -0.247297 0.005251 -0.274860 -0.099797 0.349592 -0.222280 0.379677 -0.197987 -0.324397 0.268506 -0.307966 -0.136687 0.185071 -0.240670 -0.076761 -0.120864 -0.410174 0.039444 0.083687 -0.022937 0.090279 -0.337408 0.192581 -0.359779 -0.464120 -0.004669 0.249121 -0.057731 0.057597 0.010345 -0.062505 -0.049452 0.204202 0.479778 -0.033353 0.164249 -0.226370 -0.218846 0.399961 0.089711 -0.429978 -0.147362 0.122535 -0.274191 -0.142953 -0.114937 -0.053424 -0.246346 -0.101324 -0.189042 0.363554 -0.212257
ATCG 0.255519 -0.017812 0.125862 -0.160067 -0.285977 -0.035244 -0.260197 -0.527690 -0.099978 0.326119 0.234825 0.066764 0.012611 -0.066931 -0.121163 0.125352 -0.035828 0.089034 0.016457 -0.744333 0.381475 -0.330715 0.262062 0.124043 0.283452 -0.386886 -0.478996 -0.173835 0.234935 0.218486 -0.107523 -0.163423 -0.154543 -0.040798 -0.329225 -0.322132 -0.071397 0.097688 0.199067 0.182490 -0.414808 -0.053445 -0.586650 -0.273535 -0.435128 0.367811 0.052163 0.265146 -0.065145 0.178771 0.040049 -0.005331 0.221425 -0.177113 -0.075379 0.124863 -0.536128 -0.044623 -0.160459 -0.215151 -0.264750 -0.175851 0.247698 0.137327 -0.064079 -0.016864 0.230267 0.176002 0.225248 -0.072605 0.128663 -0.239368 0.396151 -0.574467 -0.099934 -0.366551 0.268341 -0.486215 -0.051775 0.141824 0.097126 0.170447 -0.037400 0.126714 0.299473 -0.438165 0.284255 -0.061498 -0.497792 -0.105162 0.281891 -0.167984 0.334266 -0.176257 0.298923 -0.090102 -0.152082 0.152117 0.143956 0.076877
GATC 0.068865 0.416732 -0.508070 0.293060 -0.261543 0.134782 -0.586956 0.115282 0.026392 -0.152441 0.278485 -0.451148 -0.284322 0.161762 -0.025218 -0.264840 0.036346 -0.195399 0.203801 -0.567441 -0.085586 -0.271145 0.465814 0.072110 -0.055650 0.241654 -0.358773 0.282340 -0.076191 0.101397 0.119015 -0.152008 -0.138173 0.339205 -0.183734 0.394599 0.177226 0.057209 0.268372 0.059732 -0.220506 0.140590 -0.319499 -0.088560 -0.203937 0.319854 -0.185311 0.225648 -0.435279 -0.088335 -0.374288 0.397229 0.413439 -0.097100 0.000596 -0.094811 -0.096929 0.153477 -0.412629 -0.430235 -0.077391 -0.390353 -0.013770 -0.236530 -0.262063 0.281532 -0.024719 -0.179788 0.235619 -0.416762 0.148783 -0.197715 -0.053486 -0.503021 -0.021184 0.118300 0.163023 -0.313582 -0.095379 -0.070872 0.176945 0.449285 0.099617 0.212141 -0.015090 0.093014 0.133298 0.184263 0.102362 -0.074478 0.218487 -0.255603 0.042662 -0.066231 -0.154133 -0.211559 -0.354204 0.269010 -0.150278 -0.111733
AGCG 0.088174 0.310146 -0.020437 -0.143610 -0.397237 0.106997 -0.170599 -0.009738 0.080520 -0.127688 0.074378 0.022475 -0.103569 0.286697 -0.044538 0.338893 -0.064288 -0.425915 0.252702 -0.214571 0.444979 -0.627655 0.157669 0.260749 -0.018036 0.121018 -0.101695 -0.021760 -0.091568 0.280516 0.331928 -0.439564 0.064489 0.360512 0.125396 -0.190187 0.079992 -0.315202 0.355500 0.333730 -0.135306 0.180933 -0.078614 -0.169946 0.380651 0.062015 -0.263671 0.253762 0.305835 0.206250 -0.090202 -0.130532 -0.030934 -0.433170 0.088308 0.097318 -0.201568 0.026866 0.092311 -0.185245 -0.298903 -0.175018 -0.160124 -0.075045 0.269739 -0.327458 0.226889 0.223335 0.441552 -0.266268 -0.016414 -0.080216 -0.198492 -0.490720 -0.078649 0.104985 -0.114945 -0.409544 0.127862 -0.305638 0.294885 0.087216 0.075443 -0.190476 -0.037726 -0.383694 0.494147 -0.549642 -0.006555 -0.266946 -0.127559 0.050426 -0.157438 -0.236952 -0.110096 -0.145425 -0.307614 0.615140 0.399302 -0.170308
CGCT 0.036641 0.412054 -0.138384 -0.230012 -0.381236 0.043423 -0.048944 -0.098054 0.112058 0.070414 -0.181669 0.040559 0.075586 -0.238578 -0.345232 -0.115223 0.402118 -0.003288 0.152573 -0.142351 0.167402 0.100174 -0.121213 -0.161715 -0.220502 -0.616665 -0.148363 0.026262 -0.066145 0.214224 0.171555 0.278300 -0.236311 -0.493899 0.316376 0.003704 0.260091 -0.380154 -0.169523 0.446253 -0.238208 -0.065626 -0.243984 0.041981 0.092127 0.342743 -0.423799 0.250474 -0.110591 0.327675 0.048242 0.175670 0.078770 -0.123081 -0.024572 -0.082122 -0.305458 0.098476 -0.014551 -0.512311 -0.005067 -0.646459 0.164941 -0.070761 -0.473148 -0.018210 -0.180402 -0.500882 0.338002 -0.237405 -0.037274 -0.031202 -0.259039 -0.131921 -0.204935 -0.103354 -0.128689 -0.540691 -0.234151 -0.431777 -0.259844 0.250354 0.070440 -0.174237 0.443259 -0.271912 -0.207412 0.419381 -0.052101 -0.395984 0.139643 -0.108871 -0.068755 0.150654 -0.097420 -0.221281 -0.272663 0.076562 0.154272 -0.476047
GAAG 0.622130 -0.048342 0.122555 -0.188833 -0.094267 0.009423 -0.116857 -0.099185 0.003278 -0.083818 0.247625 -0.100981 0.043317 0.158225 0.039696 0.628248 0.049348 0.401934 -0.064333 -0.489159 0.104386 -0.274330 0.264262 0.010066 0.188761 0.231866 -0.063302 -0.200712 -0.120773 0.077989 -0.269638 0.051254 -0.108383 0.204010 -0.031088 0.205483 0.247929 -0.146448 -0.140826 -0.007674 -0.212996 -0.045139 -0.074389 -0.105243 0.104287 0.349856 -0.398958 0.107670 0.209825 0.449812 -0.341145 0.135706 0.608873 0.067857 -0.051249 -0.038428 -0.126608 -0.116412 0.032556 -0.239676 -0.033063 -0.412573 0.068286 -0.145011 -0.166920 0.072315 -0.115926 -0.265829 0.461742 -0.115355 0.121599 -0.159113 -0.426767 -0.266719 -0.092654 0.451130 -0.177848 -0.244678 -0.344283 -0.218660 0.116043 -0.253235 0.280801 0.122325 -0.358534 -0.341449 0.076451 -0.006652 0.031750 -0.543909 0.429918 0.218639 -0.359462 0.140683 0.362908 -0.237055 0.057086 0.255727 0.099832 0.073598
CTTC 0.012667 0.180992 -0.059781 -0.312909 -0.218079 0.008065 -0.417416 0.297548 -0.186129 0.138188 0.063837 -0.126336 -0.345984 0.094218 -0.211820 0.103194 -0.090304 -0.112838 0.260668 -0.207845 -0.020473 -0.137703 0.038043 0.267387 0.045609 -0.299080 -0.291361 0.262134 -0.467962 0.032079 0.134784 -0.074469 -0.454204 0.038774 0.239347 0.179041 0.127848 0.268266 0.018987 0.539195 -0.511799 0.309400 -0.300928 -0.278132 0.052155 0.068116 -0.264629 0.055352 -0.135618 0.119194 -0.393244 -0.141971 0.174767 -0.261877 0.267899 0.196660 -0.118807 -0.112126 -0.320681 -0.057669 -0.366433 -0.675776 0.172042 0.108838 -0.114562 -0.330493 0.163123 0.097378 0.070434 -0.084658 -0.249421 -0.169975 -0.497845 0.260158 0.116939 0.120595 0.209696 -0.221975 -0.183895 0.006159 0.155315 -0.039030 -0.214149 -0.011746 0.311834 -0.299578 -0.237278 0.210675 -0.258347 -0.152821 0.024540 -0.512422 -0.066916 0.285730 -0.079171 0.085910 0.302947 0.036906 0.219757 0.421981
GTCG 0.052934 0.312026 -0.048061 -0.266684 0.036129 0.151792 -0.120170 -0.287212 -0.048654 0.187882 0.319918 -0.144767 -0.022470 0.105387 -0.191359 0.233466 0.044380 -0.014974 0.098471 -0.297251 -0.058382 -0.310306 0.012995 0.015803 -0.133867 -0.292585 0.280662 0.056101 -0.267576 0.435907 -0.318212 -0.148757 -0.177239 0.120758 -0.316187 -0.351283 -0.572129 0.005489 -0.058184 0.127209 -0.302593 0.207919 -0.485510 -0.199669 -0.274748 0.208569 -0.539425 0.367274 0.154911 -0.039471 0.016497 0.167711 0.057770 0.066320 -0.068131 0.169838 -0.447890 0.071591 -0.086003 -0.537594 -0.159373 -0.274675 -0.008444 0.036096 -0.233502 -0.209947 -0.243492 -0.035629 0.625270 -0.234588 -0.131340 0.034073 -0.003311 -0.418123 -0.028353 -0.206676 0.675995 -0.217347 0.150728 -0.184274 0.222238 -0.093594 0.136320 0.061102 -0.002614 -0.409870 0.235960 -0.066039 -0.582514 -0.087025 0.202352 -0.115368 -0.084873 -0.075884 0.234408 -0.129401 0.042685 0.034240 0.175299 0.020011
CGAC -0.037835 0.100746 -0.065719 -0.257172 -0.662940 0.110490 -0.014216 0.178794 0.043862 -0.291419 -0.043672 -0.053918 -0.130609 0.028308 0.057199 -0.011949 0.243338 0.001152 -0.147891 -0.314874 0.035911 -0.209480 -0.064058 -0.098678 0.005408 0.038683 -0.133445 -0.474229 -0.128936 0.367305 0.092749 -0.129185 0.264733 0.130207 0.292687 -0.053478 -0.035743 -0.175128 0.338100 0.139116 -0.202883 0.250762 -0.457977 -0.536252 -0.148220 0.190247 -0.232376 0.250708 -0.214476 0.506778 0.060492 -0.090339 0.095143 -0.032298 0.371940 -0.395958 -0.349143 0.145563 -0.002914 0.032169 -0.305558 -0.147059 0.464020 0.152673 -0.492281 -0.077923 0.263140 -0.132278 0.337579 0.095587 -0.145007 -0.170883 -0.363965 -0.183715 -0.182264 -0.036552 0.334436 -0.337704 0.417119 -0.177767 -0.013217 0.416369 0.028373 0.263877 -0.274280 -0.306406 -0.212032 0.395308 -0.222916 0.050358 0.064286 -0.246397 -0.360800 -0.111391 0.154122 -0.413907 0.034279 0.129079 0.193263 0.073254
TCGA 0.259457 0.477960 -0.148459 -0.191403 -0.374097 0.077564 -0.054312 0.117875 0.003411 0.280023 -0.046914 0.008272 -0.212193 0.227827 -0.402988 0.244870 -0.008473 0.177906 -0.296219 -0.479217 -0.279206 -0.072066 0.287387 0.027547 0.137620 0.031219 -0.222718 0.082763 -0.116793 0.004634 0.169882 -0.185360 0.068201 -0.167405 0.262591 -0.227322 -0.289038 -0.264580 -0.055549 0.160983 -0.219436 0.049477 -0.479196 -0.510862 -0.034897 0.215433 -0.106096 -0.058983 0.070902 0.329986 -0.476060 -0.032152 0.006148 0.042498 0.065204 0.052193 -0.705701 0.291374 0.110148 -0.215807 -0.006494 -0.438123 -0.228244 0.464701 -0.262072 0.408396 -0.124086 0.010772 0.270592 -0.140921 -0.031813 -0.179390 0.251020 -0.284019 0.255584 -0.143470 0.245530 0.024105 0.421574 -0.036418 0.052034 0.045241 0.050139 -0.053733 -0.186701 -0.772494 -0.141640 0.004564 0.199305 0.255570 0.083398 -0.034272 -0.252377 0.229117 0.265435 -0.259256 -0.035082 0.043916 0.762702 0.077638
TCAG -0.153008 0.773534 -0.454727 -0.206347 0.017487 0.036644 -0.147138 -0.289532 -0.408404 0.231359 0.075583 -0.052767 -0.247575 -0.499303 0.000963 0.467529 0.097924 0.259223 0.183642 -0.461549 0.120327 -0.425506 0.110641 -0.158441 -0.066672 0.157414 0.056634 -0.502645 0.049314 -0.034268 0.042777 -0.146343 0.007747 0.262615 -0.023271 -0.198404 -0.032008 0.224027 -0.001278 0.425747 -0.114688 -0.289559 -0.130427 -0.175687 0.115924 -0.122532 -0.135318 -0.067609 -0.082729 -0.020360 -0.421464 0.065393 -0.129318 -0.140584 0.374441 0.103924 -0.222350 -0.082844 -0.008209 0.211968 -0.261340 -0.621616 0.079442 0.146764 -0.306455 0.129343 -0.103085 0.007900 0.160708 -0.239100 -0.244102 -0.402552 -0.152851 -0.429962 0.209310 0.224963 -0.033023 -0.031743 0.032378 -0.199524 -0.341428 -0.371995 0.325035 0.222766 -0.183974 -0.090635 -0.051313 -0.261766 -0.306546 -0.506676 -0.061639 -0.132599 0.148597 -0.022113 -0.291962 -0.478225 -0.278343 -0.096138 0.458243 0.144776
CTGA -0.016817 0.128321 -0.542866 -0.251171 -0.470737 0.393365 -0.317497 -0.237980 -0.255007 -0.332847 -0.375638 0.306949 -0.080109 -0.339053 0.177069 -0.007140 -0.143932 0.247078 0.170167 -0.393515 0.168312 -0.108938 0.016979 -0.049769 0.305094 -0.028150 -0.244724 0.216775 -0.195706 0.052089 -0.078930 -0.102208 -0.148183 0.183731 0.166940 0.153338 0.030021 -0.100923 -0.277591 0.168524 -0.418831 0.603073 -0.281928 0.139337 0.023890 0.099968 -0.498575 -0.025630 -0.132002 0.039740 -0.010724 -0.073030 0.295494 0.043013 -0.246393 -0.176664 -0.708363 0.732984 0.015232 0.124264 -0.154671 -0.510590 0.402272 -0.132203 -0.068754 0.366842 0.195071 -0.166631 0.481230 0.052011 -0.031115 -0.402769 -0.146864 0.136466 0.030072 0.163196 -0.037706 -0.111916 -0.135692 -0.300572 -0.129198 -0.108056 -0.017543 -0.207295 -0.435289 -0.531200 0.036357 -0.186236 -0.108952 0.155546 -0.138736 0.087608 0.006945 -0.011440 0.097250 0.341788 0.023633 0.041438 -0.021531 -0.035890
GACG 0.274323 -0.088070 -0.321303 0.042838 -0.539367 -0.004891 0.196664 -0.424842 -0.203704 -0.154041 0.027697 -0.197895 -0.069206 -0.256725 -0.041426 0.397293 -0.247266 -0.118845 -0.328603 -0.552183 0.143175 -0.357439 0.311173 -0.024095 -0.152809 0.136664 0.036507 -0.078504 0.007831 0.265376 0.120149 0.110930 0.114211 0.296547 -0.031897 0.260552 -0.347817 -0.390762 0.028568 0.361184 -0.314131 0.246118 -0.503611 -0.357222 0.000167 0.032330 -0.019759 -0.161471 -0.096159 0.323031 0.028034 0.194505 0.234033 0.087728 0.229821 0.335444 -0.469055 -0.178439 -0.321045 -0.075226 0.248731 -0.281748 0.137985 -0.403334 -0.075781 -0.152310 0.031706 -0.429352 0.523228 -0.147316 0.040366 0.255053 -0.214960 -0.250288 -0.163407 0.027455 0.263481 -0.353403 -0.090098 -0.079132 0.178269 0.136561 -0.223469 -0.135770 -0.234742 -0.285217 0.090520 0.239439 -0.082410 -0.107804 0.233099 -0.044671 -0.135314 0.066857 -0.370616 0.058878 -0.152548 0.238753 0.529171 -0.090896
CGTC 0.250156 0.180993 0.097390 -0.109381 -0.051246 0.200248 -0.357622 -0.199024 0.266016 0.026320 0.247500 0.038401 0.060071 0.001530 0.129575 -0.065501 0.217436 -0.100520 0.360193 -0.074400 0.092691 -0.399098 -0.046982 0.064928 0.004329 -0.381792 -0.002037 0.152013 -0.397599 -0.220765 -0.221102 -0.092174 0.096080 -0.083510 0.281622 0.244474 -0.270564 -0.183483 0.169844 0.328159 -0.416579 0.275510 -0.463564 -0.406829 -0.214499 0.136470 -0.392845 0.016180 -0.056035 -0.187516 -0.085769 -0.205898 0.317094 -0.299038 0.092962 0.119007 -0.047972 0.041343 -0.219919 -0.046835 0.511079 -0.532027 0.207396 0.083077 -0.454852 0.302284 -0.013529 -0.074207 0.242219 -0.232779 -0.191448 -0.197691 0.013582 -0.445909 -0.287874 0.195551 0.287362 -0.369203 0.214110 -0.143589 -0.146454 -0.195887 -0.113703 0.132622 0.220936 -0.238881 0.103626 0.041069 -0.039210 -0.075359 -0.214955 -0.531651 -0.370769 -0.272054 -0.070196 -0.276910 -0.114407 0.316752 0.509807 0.045695
AAAG 0.133525 0.133911 0.197323 -0.210098 -0.503082 0.095047 -0.127811 -0.017146 0.153395 -0.247270 0.091939 -0.340448 0.003041 0.202629 0.226308 0.178732 -0.064826 0.583562 -0.100902 -0.597437 0.156976 0.065482 0.288739 0.071167 0.130034 0.097210 -0.139924 -0.273976 0.261410 -0.207771 0.067091 0.225930 -0.355169 -0.151283 -0.184066 0.009660 0.174377 -0.055035 0.094230 0.221811 -0.322729 -0.036970 0.300818 -0.422125 0.348067 0.116517 -0.533364 -0.022529 0.299877 0.093088 -0.341302 0.144150 0.473034 -0.072409 -0.003900 -0.028036 0.123890 -0.167833 0.558485 -0.206300 -0.294374 -0.480697 0.309505 -0.010759 -0.149769 0.018201 -0.099553 -0.308693 0.478199 0.014438 0.054505 0.176209 -0.075444 -0.305506 0.142486 0.432741 -0.103402 -0.393356 0.036569 0.126108 0.024847 -0.153770 0.338009 -0.106680 -0.255935 -0.345289 0.028592 -0.036425 0.017504 -0.310305 0.366980 0.125814 -0.141411 -0.105390 0.259397 -0.140748 0.127433 0.243489 0.184049 0.165557
CTTT 0.141570 0.173543 0.094459 0.055276 -0.151956 0.399922 -0.233554 0.362323 -0.201303 0.027144 -0.200253 -0.071024 -0.300576 0.031295 -0.115204 0.082313 -0.290423 0.246484 0.194496 0.068121 0.136387 -0.252277 0.020169 0.279032 0.316209 -0.186238 0.029796 0.139697 -0.196853 0.451081 0.011506 -0.061782 -0.680772 0.079798 0.225529 0.063364 0.033248 -0.029902 -0.072624 0.572609 -0.285058 0.166910 -0.435619 -0.287378 -0.145276 0.305849 -0.234975 0.106412 -0.154533 -0.002226 -0.637369 0.133115 -0.226476 -0.263427 0.054807 0.495678 -0.123596 0.130929 0.030168 -0.117368 -0.224131 -0.323860 0.091904 0.082276 -0.068954 0.055521 0.356755 0.051063 0.218270 0.324138 -0.092252 0.235152 -0.414195 0.202433 -0.182229 0.027741 -0.210603 -0.079968 -0.238353 -0.225681 0.081660 0.258687 0.109703 0.051659 0.051875 -0.238661 -0.052736 0.392575 -0.195863 -0.273349 0.006458 -0.555522 -0.075856 -0.009400 -0.322790 -0.049987 0.119875 -0.076211 0.376571 0.318187
TGCG -0.105938 0.392008 0.148217 -0.654138 -0.330771 0.222519 -0.389588 -0.219722 0.061849 -0.091642 0.157006 0.209839 -0.035179 0.074445 0.141783 -0.036136 -0.271508 -0.177934 -0.143782 -0.374599 0.226206 0.068311 0.658947 0.098659 0.263674 -0.058336 0.044224 -0.107397 -0.337131 0.536110 0.397954 -0.746701 -0.225863 0.095846 0.258048 -0.020440 -0.208996 0.024640 0.018912 0.232319 0.014569 0.357148 -0.384497 0.122393 0.038211 0.208643 0.132816 0.121894 0.165546 0.178768 0.157012 0.072717 0.141766 -0.110506 -0.028255 0.276569 -0.274074 -0.277638 -0.098545 -0.220728 -0.341962 -0.490875 -0.275134 -0.356014 -0.170238 0.031362 -0.086191 0.277566 0.061984 -0.342901 0.011680 0.021934 -0.053432 -0.007193 -0.153693 0.372276 -0.044106 -0.351260 0.243748 -0.432312 -0.078170 0.071374 0.157203 -0.146791 -0.209480 -0.308823 0.315940 0.015205 -0.266788 -0.135948 0.018189 0.003965 -0.073190 -0.463208 -0.107467 -0.027526 0.058358 0.431923 0.399661 -0.058213
CGCA 0.034231 0.234314 0.289289 -0.238990 -0.429521 0.165839 -0.559279 -0.263229 -0.050942 0.015830 -0.110424 -0.140426 -0.066820 -0.064737 0.268216 0.329066 -0.140034 0.041577 0.281696 0.056490 -0.009403 -0.214870 0.027943 0.350678 0.140050 -0.382365 -0.121230 -0.196790 -0.134015 0.202000 -0.061022 0.317600 0.126300 0.027811 0.200506 0.004086 0.098271 0.193833 0.383907 0.104837 -0.080091 -0.056573 -0.086226 -0.461281 0.461400 0.284785 -0.154434 0.269159 -0.015847 0.038254 -0.260469 0.088686 -0.033939 0.117124 0.254623 -0.135358 -0.413845 0.003879 0.102599 -0.132555 0.022105 -0.354068 -0.050631 -0.051313 -0.779072 0.287795 -0.315118 -0.388734 0.406702 -0.415222 -0.110522 -0.012909 -0.044888 -0.113268 -0.016786 -0.153657 0.081768 -0.695172 -0.075423 -0.399543 -0.013462 0.095649 -0.196161 -0.058682 0.183603 -0.288703 -0.285444 0.467011 -0.299027 -0.192833 -0.242017 0.522605 0.029288 0.109144 -0.244169 -0.286550 -0.485615 -0.117738 0.075028 0.050114
GGTG -0.241795 0.319478 -0.184065 -0.258722 -0.392975 0.136311 -0.209070 -0.096912 0.247822 0.140587 0.271321 -0.316354 -0.289604 0.165576 0.123678 0.299712 0.079009 0.469973 -0.011166 -0.193531 0.303154 0.039176 0.183060 -0.219056 -0.241218 0.092566 0.015375 0.121832 -0.087446 0.420668 -0.119704 -0.005796 -0.110395 0.222697 0.391072 0.197470 0.023888 -0.142988 -0.282147 -0.040210 -0.220503 0.155345 -0.279713 0.028685 0.049002 0.173285 -0.411601 0.554354 0.065499 0.304336 -0.143422 -0.424848 0.323544 -0.467030 0.080619 0.563084 -0.406531 -0.083114 0.081889 -0.113927 -0.521432 -0.273725 0.172463 -0.418799 -0.244885 0.054239 -0.064812 -0.563458 0.109880 -0.086699 0.041375 0.067416 0.242055 -0.286176 -0.044580 -0.646761 0.022940 -0.042288 -0.006936 -0.109562 0.129563 0.009849 -0.024586 0.014155 -0.375467 -0.221127 0.076720 -0.185805 -0.117171 -0.326253 -0.084911 0.093679 -0.142557 -0.073191 -0.187911 0.134639 -0.012345 -0.328455 -0.055384 -0.019853
CACC -0.130229 0.089728 0.168473 0.007843 -0.321333 0.262586 -0.229231 -0.058868 0.257915 -0.219940 0.031622 0.250028 -0.367828 -0.062607 -0.058900 -0.017406 0.086636 0.172801 0.345609 -0.210299 -0.142855 -0.057959 -0.211000 0.408487 0.595416 0.071151 -0.023203 -0.168092 -0.127291 -0.105338 0.114548 -0.151670 -0.056312 -0.084652 0.000221 0.043276 0.053494 -0.048312 -0.012621 0.592506 0.059522 0.297502 -0.260889 0.233435 -0.132139 -0.046062 -0.284445 0.442176 -0.022768 0.164184 -0.641018 -0.063881 0.102811 -0.061397 0.086894 -0.208734 -0.222140 0.079888 -0.051619 0.118586 -0.028924 -0.021499 0.014707 -0.071213 -0.310815 -0.290027 -0.135090 0.140561 0.317095 -0.354862 0.110864 -0.348476 -0.134281 -0.497546 -0.113337 -0.398602 0.092716 -0.506460 0.446388 -0.073502 -0.258800 0.128712 0.161139 -0.018495 -0.128346 0.056090 -0.641213 -0.095137 -0.245937 -0.283065 0.369980 -0.000112 -0.089061 -0.052914 -0.271579 0.260698 0.041111 0.444783 0.496983 0.252209
CGGT 0.075591 0.331530 0.225720 0.023923 -0.167810 0.555029 -0.139161 0.068681 0.021568 -0.566364 0.130371 -0.061715 -0.160369 -0.059650 0.000115 0.364943 0.234637 0.172114 0.061080 -0.178609 0.007522 -0.123125 -0.078568 -0.000886 -0.253342 -0.385187 -0.056147 -0.472618 -0.229643 0.374925 -0.074652 0.362316 -0.352653 0.154363 0.179006 0.168775 -0.012220 -0.541935 0.070727 -0.008166 -0.420378 0.305305 -0.559043 -0.600766 -0.191732 0.223580 -0.011830 0.080809 -0.418222 0.102386 0.082343 -0.276697 0.045492 -0.542926 -0.131987 0.392394 -0.087160 0.081243 -0.085743 0.171223 -0.240231 -0.623430 -0.347034 -0.182592 -0.270729 0.288094 -0.020696 -0.302443 -0.064711 -0.527016 -0.190014 0.104195 0.129122 -0.515901 0.004130 -0.220503 -0.118070 -0.142416 0.368697 0.016255 -0.075062 -0.086727 0.127853 -0.366088 -0.057348 -0.126045 0.116351 -0.117812 -0.247537 -0.334137 0.256841 0.163707 -0.217851 0.212946 -0.101190 -0.106844 0.116147 0.233454 -0.109610 0.119565
ACCG 0.218157 0.063850 -0.000465 -0.173354 -0.339048 0.016757 0.091055 0.059797 -0.052822 0.030929 -0.145426 -0.229586 0.296890 -0.192874 -0.109797 -0.070392 -0.218452 -0.106831 -0.005259 -0.454645 0.017425 -0.257546 0.187058 0.468163 -0.018994 -0.336722 -0.034181 -0.022951 -0.227206 0.180957 -0.190675 0.252070 0.236430 -0.079542 0.260649 0.030084 0.072354 -0.033594 0.135111 0.359478 -0.338990 0.128651 -0.216557 0.168000 -0.313973 -0.026624 0.149458 0.250949 0.401721 0.094506 -0.216539 0.102766 -0.123297 -0.227798 0.170055 -0.154273 -0.170500 0.252240 0.116833 0.122842 -0.283328 -0.688708 -0.288224 -0.610085 -0.247720 -0.051229 -0.174541 -0.211562 0.404942 -0.109053 0.203597 -0.548047 -0.231685 -0.203928 -0.258205 -0.568694 0.384419 -0.085333 0.284335 -0.141725 0.073985 -0.004672 -0.213706 0.065344 -0.226827 -0.215080 -0.005714 -0.217699 -0.235049 -0.230056 0.469779 -0.103185 -0.234032 -0.407398 -0.339066 0.257466 -0.329023 0.559148 0.235196 0.381731
ATGA 0.290916 0.228792 -0.467262 -0.270693 -0.342797 0.061838 -0.133161 -0.252075 0.106792 -0.463831 -0.274217 -0.020130 -0.117875 -0.173317 0.015934 -0.139348 -0.071884 0.367766 -0.025236 -0.240866 0.263164 -0.152130 0.369455 0.140583 -0.096198 0.103820 -0.267369 0.292648 0.008786 -0.189935 0.139313 0.021657 0.123309 -0.261175 -0.067726 0.129323 0.225368 -0.215620 -0.332568 0.024624 0.172137 0.320823 -0.300176 -0.515896 -0.117694 0.375831 -0.036896 0.197889 -0.061646 0.285505 -0.219606 0.172992 0.380815 0.114203 -0.040351 -0.193050 -0.472698 0.225056 -0.183103 0.012041 -0.193071 -0.366848 -0.091433 0.017111 -0.129369 -0.067945 0.253609 0.089356 0.464958 -0.189658 -0.205969 -0.107892 -0.023096 -0.368178 -0.245101 -0.146161 0.049984 -0.349425 -0.213638 -0.237277 0.080256 -0.120543 0.019883 0.160998 -0.626705 -0.253598 0.056389 -0.260023 -0.466961 0.170150 -0.255668 0.066842 0.188193 -0.041697 0.128188 0.192414 0.022738 0.021092 0.128020 0.310640
TCAT -0.151409 0.269938 -0.123891 -0.032824 0.010846 0.142850 -0.397387 -0.325369 -0.119352 0.272612 -0.112783 0.084154 -0.144691 0.168978 0.212993 0.200252 0.048485 0.196826 0.065144 -0.186975 -0.287372 -0.343456 0.279830 0.091610 -0.126481 -0.256947 -0.052952 -0.404070 0.013492 -0.233704 0.228072 -0.155410 -0.093133 -0.090131 0.141775 0.190560 0.104566 -0.079272 0.344299 0.543796 -0.314254 0.107869 -0.326314 -0.368950 -0.250123 0.100168 -0.401879 -0.110629 -0.526873 0.073606 -0.262759 0.236503 0.015165 0.141865 -0.007735 0.202565 -0.089849 0.089822 -0.224809 -0.406971 -0.206600 -0.329627 0.016975 -0.085850 -0.176399 -0.142798 0.180959 0.284949 0.030571 -0.280290 0.058799 -0.331349 0.087354 0.029196 0.225376 -0.323725 0.141826 0.022182 -0.014256 -0.421735 -0.410876 -0.410755 -0.224268 0.164511 -0.461818 -0.231541 -0.096156 -0.164826 -0.280940 -0.355338 0.163405 -0.256294 0.081465 -0.025549 -0.013747 -0.522820 -0.328761 -0.118859 0.356711 -0.090681
TGCT -0.165257 0.261734 -0.096273 -0.498824 -0.012613 0.131293 -0.354273 -0.535161 0.136568 0.011848 0.116716 0.125330 -0.286986 -0.262843 -0.348948 -0.129199 0.220502 -0.133271 -0.302406 -0.331517 0.147601 0.273588 0.250650 -0.128822 -0.022173 -0.083472 0.018008 0.209029 -0.258483 0.189582 0.245798 -0.345777 -0.239606 -0.332505 0.097500 0.110241 -0.014870 -0.332223 -0.348148 0.214564 -0.215126 0.139703 -0.467768 0.173941 -0.015351 0.280496 -0.155150 0.145975 -0.209797 0.297940 0.167403 0.102892 0.024601 -0.140746 -0.169803 0.096452 -0.066500 -0.166437 0.157185 -0.576930 -0.194413 -0.805674 0.063168 -0.182685 -0.204588 -0.021641 -0.054973 -0.260890 -0.174907 0.027372 0.287482 -0.242154 -0.053350 0.163736 -0.262827 0.223417 -0.058729 -0.168136 0.112267 -0.433651 -0.129801 0.167545 0.064182 -0.139728 -0.160156 -0.205856 -0.236790 0.311667 -0.240996 -0.480017 0.148876 -0.302475 0.017827 -0.178936 -0.052301 0.065760 0.031521 0.100906 0.183104 -0.231134
AGCA -0.043170 0.093279 -0.080900 -0.090641 -0.136761 0.118327 -0.481814 -0.326305 0.114174 -0.134627 0.041790 -0.157651 -0.324313 0.143434 0.069211 0.480302 -0.106335 -0.258957 0.302689 -0.039807 0.235839 -0.579526 -0.069368 0.652267 0.097174 0.283554 -0.191145 -0.040016 -0.258714 -0.019512 -0.020374 -0.042681 0.218082 0.308795 -0.219375 -0.000634 0.042430 -0.105072 0.383748 0.017102 -0.092405 -0.009328 0.006374 -0.398268 0.640829 0.193534 -0.226146 0.062289 0.022431 0.217660 -0.317475 -0.156631 -0.161949 -0.178985 0.188089 -0.189887 -0.173288 0.209600 0.363117 -0.139349 0.001231 -0.271328 -0.095961 0.134487 -0.280199 -0.117527 0.240425 -0.315479 0.253800 -0.275181 0.178169 -0.205584 0.108900 -0.186772 0.020454 0.036789 0.249268 -0.485203 0.041918 -0.215102 0.425084 0.069091 -0.237209 -0.010726 -0.174396 -0.274341 -0.258812 -0.293509 -0.221671 -0.320219 -0.260192 0.249701 -0.071187 0.061467 -0.106260 -0.038434 -0.542316 0.097700 0.117690 0.244226
TTGC 0.481685 0.218193 0.001482 -0.417834 0.098825 0.275651 -0.429660 -0.067989 -0.122881 -0.365064 0.219980 -0.011227 -0.365355 0.362168 0.004330 0.162675 -0.090859 0.163997 0.055129 0.007443 0.310684 -0.142562 -0.029334 0.414088 -0.142111 0.114298 0.046914 -0.181410 0.182823 0.351292 0.138779 -0.333276 -0.165264 -0.237637 0.008702 -0.022682 -0.220764 0.115596 -0.027525 0.323181 -0.251522 0.346264 -0.401903 0.315847 0.609390 0.031590 -0.170836 0.030318 0.034612 0.183872 0.228049 0.274310 -0.137649 -0.120791 -0.126351 0.052000 -0.120512 -0.302916 -0.105041 -0.122103 -0.333506 -0.238619 0.504874 -0.012667 -0.255087 0.291102 -0.574205 -0.280762 -0.040704 -0.436317 -0.215612 -0.180059 -0.022382 0.097413 -0.159735 -0.350029 -0.072733 -0.120700 0.205958 0.005518 0.142109 0.373872 -0.371865 0.305073 -0.229817 -0.478793 -0.021945 0.180829 -0.094991 -0.495932 0.368011 -0.344823 0.309803 -0.185293 -0.199674 -0.333318 -0.110566 0.290939 0.437854 -0.074398
GCAA 0.136937 -0.042093 0.244210 -0.367043 -0.044857 0.311835 -0.467270 -0.177732 0.187322 -0.058561 -0.173993 -0.225504 0.016718 0.149061 0.075543 0.098344 -0.158296 0.317361 0.221722 0.006246 0.452883 -0.100052 -0.045892 0.066402 -0.162215 -0.104111 0.148502 0.210386 0.023737 0.114601 0.222866 -0.334218 0.170184 0.102284 0.125318 -0.582501 0.012390 -0.157941 0.363307 0.172467 -0.282258 -0.134612 -0.362546 -0.297148 0.221706 0.180540 -0.085082 0.247298 -0.071046 0.281535 -0.329589 0.245750 0.242717 -0.207731 -0.244499 -0.308782 -0.329349 0.101078 0.305807 0.109836 0.040347 -0.500252 0.316387 -0.407871 -0.019685 0.232558 -0.200806 -0.135523 -0.134617 -0.199775 -0.114673 -0.035910 -0.197389 -0.366455 -0.083431 0.330989 0.305494 -0.899008 0.067507 -0.262071 0.455319 0.050007 0.315725 -0.243046 -0.066391 -0.083094 -0.168753 0.113718 -0.046943 0.346854 0.382874 -0.145203 -0.362358 0.261791 -0.567210 0.231918 -0.146067 -0.288506 -0.017238 0.164863
CGGG 0.148450 0.374685 0.053443 -0.168793 -0.076482 0.241609 -0.225041 -0.024748 -0.027606 -0.303436 0.146934 -0.088688 0.139361 -0.233523 0.212140 0.340907 0.029960 0.411331 0.015477 -0.670434 -0.059712 -0.097792 0.204862 0.166364 -0.151706 0.079005 0.008739 -0.448877 -0.051261 0.128177 0.106161 -0.148924 -0.361092 -0.253177 0.340357 0.104197 -0.230609 -0.268690 0.416811 0.350810 0.148945 -0.007544 -0.169635 -0.372072 -0.154428 0.539241 -0.419696 0.171852 0.029123 0.397010 0.325113 -0.031890 0.055222 -0.291416 0.014274 0.263621 -0.010055 0.485075 -0.202662 -0.046743 -0.126291 -0.512454 -0.019247 -0.198600 -0.267050 0.437758 -0.185298 -0.280576 0.212053 -0.224232 -0.156699 0.005047 -0.202137 -0.200253 -0.107870 -0.258563 0.227175 -0.378746 0.249792 0.197292 0.181103 -0.020979 -0.026691 -0.650167 0.225655 0.056384 -0.093417 -0.237034 -0.343388 -0.311275 -0.145487 -0.014964 -0.301752 0.224516 -0.053935 0.014605 -0.089977 0.289727 0.073305 0.036144
TCGG 0.145354 0.232795 0.133742 -0.479366 -0.475548 -0.048077 -0.297320 -0.360989 0.081148 0.075569 -0.370362 -0.064624 -0.389243 0.222004 -0.069071 0.610039 0.120041 -0.226400 0.258766 -0.556386 -0.101869 0.077025 0.280534 0.102270 -0.262022 0.112189 0.258088 -0.098118 0.094039 0.341637 0.193598 -0.465096 -0.259467 -0.114138 -0.012584 0.108972 -0.324173 -0.330048 0.114898 0.427281 -0.573495 -0.062254 -0.402663 -0.116499 -0.458575 0.203110 -0.167494 0.136054 0.259209 -0.036520 -0.202154 0.140969 0.099220 -0.180264 0.302211 -0.050639 -0.470076 0.384568 -0.127492 -0.027814 -0.321466 -0.501901 -0.040823 0.164065 -0.340955 0.363897 -0.149828 0.031892 0.187973 -0.173341 -0.079644 -0.013016 0.302203 -0.173064 0.095124 -0.289760 -0.049816 -0.061916 0.045698 0.274933 0.195396 -0.034884 -0.093385 -0.332507 -0.026589 0.260098 0.012410 -0.080752 0.033368 -0.179950 -0.019646 -0.195774 -0.318278 0.067475 0.329428 -0.187128 -0.122756 -0.158170 0.575958 0.196056
CCGA 0.141333 -0.072741 0.019890 0.339031 -0.267209 0.372825 -0.136562 0.414413 -0.103925 0.344815 0.344674 -0.165280 0.015775 -0.311552 -0.162255 0.052413 -0.188124 0.458278 -0.189568 -0.437378 0.108688 -0.181962 0.077194 -0.088072 -0.046461 0.082414 -0.155279 -0.261678 -0.514011 0.103471 -0.175497 -0.164935 0.002463 -0.146457 0.394023 -0.055739 -0.169413 -0.363377 0.044049 0.117121 -0.273614 0.168704 -0.269014 -0.321566 0.343638 0.300661 -0.133206 0.262397 -0.126020 0.273262 -0.590840 0.032071 0.075108 0.243598 -0.185601 -0.376635 -0.422102 -0.214767 0.078900 -0.273776 0.087651 -0.566963 -0.172384 0.391815 -0.207308 0.257229 -0.082311 -0.038180 0.401583 -0.082805 -0.262650 -0.288733 -0.137526 0.030012 -0.301698 -0.206642 0.295003 -0.297975 0.555539 -0.273862 0.009823 0.382531 -0.085182 0.038762 -0.360756 -0.518805 0.118766 -0.260004 0.065728 0.132625 -0.026777 0.121115 0.207263 0.174881 -0.178178 0.055778 0.024688 0.296082 0.382179 0.077330
CCCG 0.121010 -0.041541 0.133996 0.114751 -0.324869 -0.024971 -0.419407 -0.048582 -0.225769 0.071551 -0.169827 -0.020971 0.212894 -0.137991 -0.333612 0.302254 0.008746 -0.148138 0.042936 -0.408879 -0.123398 0.008492 0.331274 0.404100 -0.284750 0.048059 0.132571 -0.091559 -0.340771 0.252647 -0.273083 0.047533 0.058255 -0.078812 -0.009971 -0.213856 0.203983 0.064339 -0.005895 0.321367 -0.390532 0.472211 -0.218852 -0.015974 0.000160 0.143490 -0.238441 0.269293 0.083845 0.367767 -0.104709 0.165974 0.320013 -0.227210 0.366966 -0.108723 0.030774 -0.152219 0.252246 0.022270 0.017984 -0.665147 -0.051281 -0.327849 -0.296698 0.359234 0.203176 0.046295 0.543941 -0.392365 0.063225 -0.061701 -0.418265 -0.272364 -0.224570 -0.486370 -0.074429 -0.177658 0.495561 -0.320573 -0.328981 0.075636 -0.130417 -0.112552 0.041299 -0.326057 -0.022301 -0.397867 -0.229022 0.282665 0.256398 -0.126663 0.017413 -0.215987 -0.347907 0.086383 -0.056857 0.005617 0.239129 0.302143
GCCC 0.082790 0.198047 0.074613 -0.034552 -0.309772 0.028274 -0.648254 -0.001975 -0.243963 0.075928 -0.146922 0.187300 -0.469599 -0.176049 -0.381536 0.283900 0.174123 0.133397 -0.113426 0.087968 0.202408 -0.367737 0.126492 0.059356 0.244716 -0.170698 -0.155000 -0.053191 -0.138787 0.398471 0.028064 -0.392817 -0.517020 -0.025472 -0.178635 0.190131 0.045290 -0.009958 -0.190479 -0.098520 -0.613357 0.005416 0.001333 -0.355953 0.207135 0.285120 -0.494262 0.254056 -0.283846 0.069230 0.024338 0.011789 0.497646 -0.087434 0.044565 -0.131569 -0.039858 -0.006129 0.215277 -0.264982 0.130549 0.030625 0.166740 -0.367192 -0.294882 0.061277 -0.193124 -0.075057 0.001325 -0.207960 -0.114291 -0.078782 -0.396820 -0.199304 -0.325417 -0.181774 -0.074353 -0.343118 0.168815 0.197755 -0.157326 0.178417 0.037569 -0.006547 -0.191082 -0.154627 -0.198762 -0.211524 -0.393791 0.132767 0.088595 0.139046 -0.351455 -0.152831 -0.639552 -0.091244 -0.116757 0.261187 0.654490 0.007250
GGGC 0.208456 -0.107413 0.081188 0.001151 -0.107835 0.315919 -0.304850 -0.054515 -0.089290 0.058493 -0.043219 0.071128 -0.105637 -0.038920 -0.044000 0.094820 -0.128033 0.196767 0.065929 -0.484950 0.370506 -0.271595 0.394580 -0.041768 -0.114229 -0.058669 -0.045073 0.121348 0.008834 0.064356 -0.422859 -0.868781 0.026521 -0.299981 0.239147 0.102493 -0.112543 0.055872 0.122357 0.155100 -0.109531 0.065996 -0.255407 -0.069812 0.145956 0.184824 -0.438321 0.087132 0.080309 0.281284 -0.232736 -0.205204 0.114694 -0.092993 0.322500 0.086209 0.041661 0.167841 -0.205029 -0.115686 -0.791949 -0.198946 -0.061260 -0.456715 -0.351484 -0.008105 -0.306668 -0.393223 0.402632 0.149472 -0.029674 0.173805 -0.092499 -0.365327 -0.014860 0.144803 0.135526 -0.402593 0.109290 -0.282608 0.296295 0.027019 -0.201297 -0.133884 0.250011 -0.093427 -0.425592 0.011065 -0.046271 -0.523707 -0.123301 -0.141519 -0.120053 -0.197113 -0.133850 0.087888 -0.406640 -0.313479 0.348927 0.030157
TAAA -0.072547 -0.081001 -0.179201 -0.319634 -0.372560 -0.262287 -0.565538 0.043013 0.483795 0.041409 0.062214 -0.278939 -0.202712 -0.124980 0.017238 -0.075524 -0.020038 0.178904 -0.101594 -0.188536 0.076999 0.003222 0.169529 0.202449 0.049383 -0.051848 0.199006 0.310115 0.111717 -0.005902 -0.165337 0.040199 -0.148854 -0.168434 0.513909 -0.080061 0.017623 -0.149171 0.087641 -0.025853 -0.512552 -0.076877 -0.192754 -0.305215 0.220274 -0.051317 0.003283 -0.393720 -0.016881 0.223405 -0.580173 0.007077 -0.097214 0.078751 -0.146883 -0.010901 -0.113685 -0.043471 -0.012227 0.286560 -0.159118 -0.150948 0.227859 0.013241 -0.231139 0.231104 -0.133256 0.142628 0.499556 -0.366011 -0.031069 -0.214428 0.004876 -0.336484 0.130311 -0.057671 -0.001713 -0.509148 -0.213187 -0.170781 0.108603 -0.002304 0.229760 -0.442981 -0.075794 -0.176429 0.065969 0.072401 0.190738 -0.018091 0.174644 -0.126254 -0.037585 -0.631781 0.003514 -0.327450 0.035842 0.074884 0.369045 0.174155
TTTA 0.171495 0.159754 0.028999 0.336762 0.363656 0.469624 -0.194155 -0.221581 -0.049398 -0.349511 0.042370 -0.225377 -0.309016 -0.473098 0.101672 0.260278 0.150484 0.082622 -0.481257 -0.204777 -0.183050 -0.124499 0.094287 0.559392 -0.133876 -0.143234 0.203504 0.279726 0.152340 -0.150927 0.022686 -0.231585 -0.116267 -0.122674 0.073361 0.038253 0.283949 -0.148562 -0.051759 0.264786 -0.331370 0.058148 -0.159086 -0.023651 -0.016394 0.074114 -0.173021 0.232089 0.195021 0.296192 -0.413447 -0.061210 -0.348760 0.082680 -0.084913 0.424540 -0.325866 0.110944 0.179218 -0.290345 0.109651 -0.150423 0.116167 -0.004191 -0.358718 0.458312 0.358611 -0.363052 0.233860 -0.196415 -0.244033 -0.206767 0.007349 0.019811 0.244227 -0.263602 0.128859 -0.324917 -0.021929 -0.071232 -0.064259 0.111904 0.289158 0.237506 0.002036 -0.221566 0.203061 0.320232 -0.086818 -0.038791 0.428215 -0.298760 -0.029098 -0.079543 0.114457 -0.063221 0.051582 -0.064506 0.307724 0.374967
TTTG -0.018467 0.222255 0.071183 -0.088677 0.075702 0.237356 -0.310389 0.067653 0.556347 -0.407458 0.036480 0.006585 -0.052471 -0.126815 0.046908 0.454859 -0.075322 0.409549 0.108522 -0.140606 0.094618 -0.101543 0.195944 0.256523 -0.091688 0.213688 0.152715 -0.013084 0.008775 0.502354 -0.212379 -0.101062 -0.125946 -0.017249 0.197531 -0.262210 0.444674 -0.197668 0.027604 0.278539 0.198962 0.631283 -0.420852 0.012514 0.054080 0.298033 -0.302683 0.005290 0.314123 0.067291 -0.087670 0.527437 -0.291526 -0.096446 0.124925 0.250809 -0.302188 -0.100857 0.301324 -0.187566 -0.075387 -0.551023 0.270744 -0.307122 -0.141621 0.719675 0.115215 -0.046472 0.237791 0.051298 0.120673 0.181666 0.090731 -0.242079 0.016857 -0.164386 0.082831 0.168394 -0.119131 -0.150902 -0.087544 0.069622 -0.366471 0.290113 0.052873 -0.186579 -0.002925 0.069938 -0.248773 -0.118145 0.238928 -0.377462 0.378503 -0.223006 0.027540 -0.148553 -0.032850 -0.061000 0.527152 -0.138431
CAAA -0.030056 -0.040911 0.001385 -0.279372 0.008762 0.031753 -0.117310 -0.052384 0.094288 0.174906 -0.125362 0.009700 -0.432943 -0.275918 0.269687 -0.026237 -0.324444 0.194802 0.055121 -0.250737 0.260940 0.039763 0.089400 0.106785 0.073027 -0.005974 0.073252 -0.203920 0.005616 0.013718 -0.028182 -0.094013 -0.035809 -0.090690 0.482666 -0.213549 0.099806 0.029580 0.109899 0.074556 -0.474388 0.715239 -0.070653 -0.415744 0.012644 -0.092299 -0.325005 0.024605 -0.012396 -0.053454 -0.622505 -0.070252 0.319945 0.160990 -0.015881 0.089695 0.017082 -0.062134 0.535024 -0.023095 0.111381 -0.272183 0.233588 0.179643 -0.113257 -0.033367 -0.344422 0.168174 0.262296 -0.432683 0.071572 -0.135234 0.170629 -0.412985 -0.021014 -0.126647 0.308912 -0.733704 0.102467 0.134726 0.196296 0.161576 0.287746 -0.528604 -0.479554 -0.063962 0.065993 0.144101 -0.041776 -0.098291 0.098410 -0.519494 -0.107292 -0.042204 -0.196040 -0.077629 -0.432844 0.078110 -0.069729 0.236693
AGAA 0.263045 0.124347 0.009794 0.032937 -0.239551 -0.126124 -0.358827 -0.463636 0.253551 -0.109428 0.335758 -0.083319 0.296294 -0.001203 -0.052893 0.501843 -0.090582 0.255180 -0.136018 -0.426954 0.024854 -0.118978 -0.029327 0.335069 -0.270026 0.024446 0.012788 0.080876 -0.318329 0.131713 -0.039420 -0.338226 -0.265944 0.353166 -0.062059 -0.105809 0.002008 -0.187620 0.110255 0.038835 -0.181519 0.335838 0.127625 -0.321410 0.200087 0.091175 -0.038691 0.000151 0.174706 0.174963 -0.754877 -0.445444 -0.115651 0.163152 0.035307 -0.164818 -0.121713 0.308169 -0.094048 -0.225840 -0.047331 -0.303625 0.094968 -0.014856 -0.184490 -0.247408 -0.367920 -0.209534 0.098764 0.190908 0.023700 -0.342789 -0.055396 -0.585356 -0.217725 0.170224 0.109061 -0.322830 -0.497111 -0.076019 -0.159758 0.318109 0.193841 -0.282232 -0.346623 -0.318446 0.014331 -0.164809 -0.215955 0.244590 0.034304 -0.111531 0.169823 0.137008 -0.197327 -0.008615 -0.093947 0.313335 -0.021548 -0.126335
TTCT -0.111155 -0.147643 -0.073364 -0.292650 -0.163246 0.294819 -0.357927 0.370125 -0.091263 -0.124615 0.325862 0.093688 -0.437140 -0.371937 -0.067449 0.212123 0.201185 0.155601 0.046051 -0.359569 -0.323969 -0.171325 -0.101677 0.390346 -0.312457 -0.150091 -0.122949 0.100330 -0.155387 0.021148 0.194806 -0.236897 -0.097488 0.037569 0.162951 -0.136102 0.264837 -0.459349 -0.381970 0.377044 0.127063 -0.035716 -0.178088 -0.144760 0.255233 -0.408160 -0.279312 0.175435 -0.268298 -0.073819 0.087793 0.397069 0.374504 -0.240121 0.392006 0.089388 -0.224427 -0.091512 -0.280544 -0.190355 -0.173885 -0.494205 0.297858 -0.211278 -0.124614 0.195877 -0.019412 0.044574 -0.015576 -0.241250 0.038721 -0.059936 0.216609 0.004836 -0.138544 -0.165904 0.065485 -0.008917 -0.070512 -0.365865 0.139203 -0.023202 0.128947 0.031133 0.202967 -0.160495 0.112658 0.393501 0.034325 -0.408931 -0.001330 -0.476628 -0.271718 0.040010 0.022851 0.084604 -0.112397 0.188724 0.570539 0.167217
GCTT -0.208319 -0.084515 -0.310518 -0.227590 -0.057875 0.600388 -0.297777 0.083091 -0.347267 0.021444 -0.063679 0.184569 -0.263630 0.124718 -0.404694 0.205197 0.339715 0.159516 0.346330 -0.007219 0.548241 -0.000476 0.297181 0.176278 0.035921 -0.084729 0.085101 0.107507 -0.284450 0.337319 0.026122 -0.028460 -0.075549 -0.141211 0.023787 0.012937 0.172651 -0.412763 0.234055 0.427831 0.053043 0.174264 -0.510260 -0.156832 0.456462 0.459309 -0.043207 -0.289791 0.170130 0.129124 -0.408252 -0.074491 0.190990 0.084889 -0.040058 0.655406 -0.056728 0.403188 0.053710 -0.504427 -0.370759 -0.442764 0.341389 -0.242358 -0.027484 0.033321 0.188872 -0.120952 0.095989 -0.051935 -0.094556 -0.208276 -0.262504 0.111233 -0.199108 -0.154761 0.490874 -0.091751 -0.208120 0.087406 -0.422506 0.254271 0.363359 -0.166694 0.381088 -0.035304 0.016589 0.353828 -0.260030 -0.087350 0.075137 0.051472 -0.431814 0.028713 -0.291377 -0.224016 -0.090213 0.232301 0.177499 0.227146
AAGC 0.166706 0.402978 0.495892 0.014957 -0.338950 0.000891 -0.528025 -0.054751 0.051330 -0.199684 0.084192 0.127751 0.041028 0.078060 -0.050248 0.011818 0.095673 -0.257080 -0.228695 -0.374193 0.452378 -0.456220 0.189285 0.060016 -0.353402 0.186353 0.073910 -0.396979 -0.058166 0.010548 0.194989 -0.217147 -0.161185 -0.218877 -0.072853 0.049029 0.054659 0.176133 -0.482535 0.133957 0.057103 0.051978 -0.306388 -0.072020 0.295521 0.039722 -0.451878 -0.094494 -0.009425 -0.069815 -0.296062 0.369042 0.214870 -0.480195 0.225398 0.043790 -0.078610 0.167083 0.541369 0.035519 -0.261914 -0.314842 0.009132 0.425043 -0.087876 -0.180226 -0.201534 -0.396346 0.483771 0.109852 0.223271 -0.161949 0.021497 -0.170261 -0.206585 0.173248 0.343446 -0.730820 -0.520669 0.007120 -0.146737 -0.098062 -0.218747 -0.089771 -0.120959 -0.497296 0.128772 -0.135177 0.033711 -0.189868 0.335597 0.289610 -0.260511 -0.315420 -0.263595 -0.101991 0.032409 0.354424 0.122030 0.357181
TTGA 0.294520 0.156085 -0.478137 -0.183540 -0.207388 0.442452 -0.256834 -0.083407 0.010661 -0.522002 0.364780 0.246995 -0.313295 -0.393580 0.299822 0.078178 -0.350620 0.528862 0.047256 0.106174 0.229576 -0.398245 0.333751 0.044742 -0.163427 -0.129894 -0.006152 0.376413 0.005237 0.179957 0.247236 -0.036326 -0.043943 0.042832 -0.099580 0.078223 0.230868 -0.218905 -0.263683 0.268426 -0.036377 0.288494 -0.528875 -0.072871 0.071763 0.317511 -0.170145 0.141102 0.204015 0.298144 0.043299 0.057728 0.012187 0.068520 -0.389633 -0.309874 -0.363795 0.363367 -0.083864 0.048167 -0.320501 -0.444358 0.386206 0.102381 -0.155080 0.000880 -0.291975 0.028148 0.346270 -0.382255 -0.168430 -0.210484 0.110874 0.042190 0.163321 -0.036227 -0.158573 -0.029865 -0.182688 0.307000 0.028518 0.190771 -0.263639 0.291922 -0.560962 -0.520756 -0.004807 -0.085851 -0.082685 0.005283 -0.003511 -0.069193 -0.023853 -0.148521 0.171590 -0.015487 0.021130 0.058507 0.455440 0.014658
TCAA -0.039117 0.179714 -0.091083 -0.145664 0.059213 0.243749 -0.446668 -0.333959 -0.028082 0.094436 -0.338841 -0.217690 0.033254 -0.146541 -0.153915 0.132670 0.007290 0.287113 0.491027 -0.016753 0.088062 -0.238702 0.351328 0.261656 -0.358973 -0.122789 0.117376 -0.429783 0.062187 -0.309875 0.366449 0.038167 -0.132575 0.035301 0.282878 -0.397123 -0.045017 -0.185782 0.316035 0.057454 -0.304829 0.068212 -0.206891 -0.122082 -0.277840 -0.071043 -0.282376 0.176874 -0.326477 0.412615 -0.462529 0.379977 0.073461 -0.133656 -0.064370 0.057744 -0.257741 -0.213967 -0.164090 0.229231 -0.196851 -0.371988 0.253100 0.031195 -0.166479 -0.023920 -0.246365 0.069685 -0.112870 0.075815 -0.051363 -0.416404 0.019100 -0.239811 0.570748 0.361398 0.229599 -0.473507 0.032471 -0.156203 -0.064819 -0.192227 0.374683 -0.065499 -0.359623 -0.467400 -0.074398 -0.029347 -0.076008 0.079798 0.260420 -0.303751 -0.169730 0.194006 -0.314824 -0.161393 -0.483855 -0.211177 0.410311 0.062444
ATGC 0.496016 0.173102 -0.176368 -0.551913 -0.022906 0.032480 -0.357274 -0.266639 -0.072714 -0.372665 -0.354573 -0.166359 -0.252081 0.553731 -0.426367 -0.113948 0.187289 0.094326 -0.066636 -0.310504 0.351277 0.042327 0.023544 0.417388 -0.022533 0.382466 -0.413724 -0.101508 0.215986 -0.036479 0.150250 -0.159200 -0.050447 -0.673570 0.022898 0.053702 -0.239291 -0.029209 -0.307333 0.104301 0.005387 0.422781 -0.069061 -0.102242 0.359151 0.194776 0.011791 0.234826 -0.179788 0.104597 -0.198173 0.310565 0.281266 -0.221313 0.083312 0.335890 -0.227986 -0.207561 -0.219232 -0.057865 -0.145470 -0.276679 -0.059555 -0.121371 -0.297111 0.010361 -0.199159 -0.212354 0.006342 -0.077567 -0.277360 -0.164592 -0.078918 -0.349954 -0.418588 -0.374148 0.093558 -0.448102 0.052434 -0.521842 0.191661 0.064192 0.011924 0.118058 -0.243566 -0.099362 0.147703 -0.056378 -0.531223 -0.268319 -0.004906 -0.029816 0.478747 -0.317226 -0.173186 -0.295432 -0.075733 0.255950 0.234502 0.120291
GCAT -0.110784 0.005803 0.108437 -0.213185 0.004117 0.233940 -0.426706 -0.120807 0.078131 0.105521 -0.000693 0.164620 -0.098917 0.449223 0.450241 0.205873 -0.216078 0.158243 -0.147179 -0.191488 0.025315 -0.376020 0.112974 -0.131728 -0.064661 -0.311367 -0.110240 0.122103 0.179553 0.143302 0.089856 -0.445391 0.179548 0.089721 0.126557 0.107534 0.260248 -0.059247 0.217179 0.812666 -0.186073 -0.169646 -0.410637 -0.612741 0.266305 0.385378 -0.232609 -0.052273 -0.412427 0.018813 -0.104619 0.073411 0.139314 0.019643 -0.244575 -0.113562 -0.136297 0.446997 0.264191 -0.544472 -0.054448 -0.313523 0.034556 -0.424203 -0.120576 -0.019244 0.290035 0.065473 -0.119120 -0.521209 0.082074 -0.112904 -0.033621 -0.148155 -0.323427 -0.353881 0.264251 -0.455562 -0.115176 -0.688875 0.064397 -0.210166 -0.188634 0.038858 -0.181921 0.050194 -0.293196 -0.156423 0.020188 -0.031941 0.463367 0.026896 -0.206836 0.129280 -0.390070 -0.185175 0.122072 -0.246261 0.005981 0.116473
AATT 0.425943 0.252798 0.356735 -0.258685 -0.264483 0.128356 -0.121115 -0.317349 0.295959 0.049754 0.147179 -0.206254 0.223220 -0.098646 -0.261749 0.207397 0.054808 0.372710 -0.102719 -0.179179 0.631571 -0.152842 -0.339509 0.093613 0.037276 0.046348 0.146830 0.063517 0.200555 0.275244 -0.198300 0.078568 -0.230772 -0.060608 -0.068202 0.232052 0.110102 -0.175079 0.369269 0.285532 0.011890 0.184282 -0.250306 -0.176011 0.469231 -0.118126 -0.416134 -0.225868 -0.250675 -0.383675 -0.236692 0.317457 0.271110 0.027170 0.345459 0.310807 -0.222914 0.057358 -0.117477 -0.186293 -0.247927 -0.381054 -0.296405 -0.062305 -0.022196 -0.089964 0.254743 -0.040531 0.185262 -0.132234 0.136641 -0.408862 0.342005 0.141709 0.092512 -0.207862 -0.072254 -0.454670 0.017014 -0.126284 -0.206490 0.262397 0.002448 0.141676 -0.340500 -0.059337 -0.114915 0.226132 -0.211523 0.186408 0.086677 -0.560075 -0.309731 0.130242 0.043666 0.097292 0.108749 0.081423 0.285044 0.227869
TATT -0.075199 0.140360 0.168222 -0.333964 -0.122157 -0.217943 -0.294464 0.195054 0.125559 -0.120426 0.168002 0.087002 0.016079 -0.272323 -0.029506 0.245940 -0.010883 0.211075 -0.205320 0.225700 0.233094 -0.276294 0.023763 0.271670 0.065103 -0.060062 -0.152709 -0.138759 0.110212 0.470728 -0.279854 -0.064347 -0.206974 -0.452663 0.177125 0.363423 -0.172528 -0.180601 0.386755 0.148753 -0.134405 0.182527 -0.203494 -0.154656 0.167966 0.028326 -0.118069 -0.010657 -0.310614 -0.050329 0.170348 0.064537 0.025663 0.216048 0.162435 0.287118 -0.110083 0.063992 -0.156463 -0.171657 -0.372091 -0.512969 0.060250 0.014007 0.049148 0.210442 0.271711 -0.145470 0.113916 -0.128563 0.069393 -0.499297 -0.051680 -0.435975 0.068460 -0.087992 0.004202 -0.065776 -0.208289 -0.348452 -0.004798 0.493638 0.229049 0.343751 -0.081268 -0.163777 -0.158306 -0.300725 -0.101938 -0.106820 0.137586 -0.410354 -0.354500 -0.105785 0.200132 0.106288 0.137636 -0.181532 0.417957 0.417393
AATA 0.568184 0.024015 -0.042917 0.096290 -0.377791 0.351761 0.030878 -0.222576 0.393709 -0.171093 -0.181372 -0.288457 0.153823 -0.113920 -0.199161 -0.057220 0.093788 0.115949 -0.444912 -0.338120 0.205086 -0.131892 -0.092914 0.277844 0.130472 0.174262 0.004522 -0.137346 0.077593 0.195310 0.062798 -0.114956 -0.297347 0.242059 0.175457 0.019253 0.324218 0.060011 0.268238 0.094042 -0.081693 -0.063427 -0.255726 -0.263098 0.345404 0.060493 -0.266488 0.398409 0.043940 -0.267712 -0.133769 -0.061836 0.246361 -0.192008 -0.117864 0.015011 -0.135182 0.040870 0.144884 -0.061505 -0.242577 -0.341035 0.003248 0.174364 -0.364112 -0.354208 -0.404741 -0.128165 0.140496 -0.291714 0.016394 -0.245971 -0.000007 -0.072895 0.349926 -0.262502 0.203926 -0.279756 -0.104132 -0.446682 -0.348187 -0.194847 0.121574 -0.320556 -0.015646 -0.193778 -0.065824 0.020795 -0.304548 0.187949 0.219488 -0.336822 -0.265823 -0.174839 0.141228 0.051154 -0.092370 -0.336400 0.128900 0.189785
GGAA 0.435341 -0.096014 0.103099 -0.253326 -0.192353 0.273785 -0.584996 -0.403978 0.009002 0.067493 0.313137 -0.306982 0.162945 -0.149550 0.044951 0.277070 0.233061 0.472688 -0.042949 -0.452038 0.036647 -0.129452 0.366032 -0.034004 -0.061788 -0.147531 0.294832 0.166067 -0.071099 0.184782 0.183162 -0.393403 -0.540750 0.197493 0.341786 -0.284893 0.158194 -0.323360 -0.309161 0.193280 -0.113469 0.371699 0.032183 -0.315368 0.236823 0.163993 0.137126 -0.300994 -0.182892 0.289647 -0.524116 -0.290473 0.063478 0.057022 0.222888 -0.221490 -0.354314 -0.005795 -0.007884 -0.132324 -0.043812 0.018619 0.163468 -0.304069 0.049754 -0.055430 -0.551746 -0.591941 0.441078 -0.129938 0.062201 -0.045134 -0.154078 -0.477248 0.198347 -0.096959 0.267463 -0.142201 -0.157669 -0.405865 -0.198326 0.133693 -0.082546 -0.077051 -0.120462 0.121890 -0.085634 -0.452505 -0.067557 0.074344 -0.174940 -0.251454 -0.331510 -0.001130 0.144794 -0.034380 -0.270164 0.282281 -0.284395 0.311926
TTCC 0.126141 0.297283 -0.164144 -0.338565 -0.282380 0.308861 -1.021845 0.126662 0.194568 0.117935 -0.259365 0.099063 -0.078634 -0.308500 -0.121477 0.578362 -0.096497 0.090820 -0.227632 -0.348593 -0.133664 -0.469732 -0.328740 0.284994 -0.149667 -0.099046 -0.297755 -0.006226 -0.582630 -0.070873 0.366867 -0.234852 -0.191173 -0.083735 0.256401 0.242796 0.272467 -0.397111 -0.162917 0.244276 -0.133414 0.114676 -0.086739 -0.037976 0.180454 -0.312072 -0.383365 0.251063 0.096126 0.085568 0.036287 0.143005 0.254238 0.182785 0.349343 0.162924 0.385342 0.287960 -0.209742 0.091989 -0.033574 -0.235420 0.182498 -0.339953 0.090731 0.181513 -0.118666 0.155022 0.225372 -0.166490 -0.204451 0.147075 0.098555 -0.131083 -0.051862 -0.096339 0.063928 -0.085105 0.410195 -0.024789 -0.186588 0.289143 0.174003 0.485546 0.071672 -0.253313 0.087409 0.321588 -0.005454 -0.250261 0.479694 -0.158570 0.098581 -0.117817 -0.049717 -0.016790 -0.045547 -0.161325 0.382743 0.375139
AGCC 0.290411 0.280188 0.046061 0.057982 -0.078576 -0.241795 -0.202329 -0.091003 0.084629 -0.327158 0.077865 -0.129762 -0.129680 0.281808 -0.413615 0.467965 -0.062803 -0.179837 0.290537 -0.455446 0.219096 -0.671813 -0.179633 0.184009 -0.132466 0.098200 -0.042791 -0.069442 -0.059057 -0.123270 0.050289 -0.252226 -0.131684 0.331860 -0.224010 0.225724 0.093559 -0.475538 -0.060367 -0.181200 -0.358419 0.189455 0.004094 -0.155685 0.585889 0.093119 -0.527879 0.151834 0.089881 0.127042 -0.288577 0.019625 -0.008122 -0.505176 -0.026461 -0.393901 -0.098219 0.171102 0.482924 -0.419568 -0.210586 0.107382 0.308484 -0.276344 -0.038293 -0.129062 0.470770 0.147192 0.182161 -0.143352 -0.317028 -0.305229 -0.279513 -0.255858 0.147433 -0.213511 0.355627 -0.397398 0.221795 -0.040035 -0.091304 -0.000121 -0.160642 -0.375507 -0.127385 -0.156388 0.064324 -0.231957 -0.063192 -0.456146 -0.055606 -0.073406 -0.049373 -0.241924 -0.352856 0.160857 -0.177405 0.256486 0.451952 0.339616
GGCT 0.000172 0.251060 -0.291666 -0.322985 0.114349 0.058472 -0.009399 -0.167639 -0.153065 0.288248 -0.071651 -0.130328 -0.095921 -0.144958 -0.235700 0.005113 0.453309 0.367727 -0.088641 -0.125378 0.299997 0.334400 0.120869 0.075337 -0.221311 -0.211354 -0.055021 0.105104 -0.279082 -0.264113 -0.084167 -0.378656 -0.077434 -0.179670 0.264428 -0.134856 0.096616 -0.420814 -0.415939 0.604639 -0.220991 0.254407 -0.556212 -0.024143 -0.032915 -0.094963 -0.505558 0.011777 -0.445881 0.337465 -0.055724 -0.014518 0.101908 -0.152109 -0.050487 0.060377 -0.171941 0.231251 0.105674 -0.564301 -0.419203 -0.648340 -0.015175 -0.187125 0.139509 0.007263 0.008929 -0.656190 0.204960 0.101558 0.118776 -0.009431 -0.214262 -0.142490 -0.534497 0.083684 -0.275691 -0.532485 -0.100607 0.161688 -0.007405 0.324517 -0.101180 0.132168 0.288536 0.218061 -0.336159 0.007298 -0.115129 -0.432940 0.255731 -0.117391 -0.212968 -0.180180 0.014412 -0.058905 -0.261472 0.009573 0.240578 -0.302254
AGGC 0.281182 -0.017713 0.038987 -0.168552 -0.324521 0.180092 0.041991 -0.092423 0.149739 -0.397990 0.040043 0.436154 -0.297029 -0.200812 0.067636 -0.076990 -0.169439 -0.264004 0.309515 -0.330119 -0.022674 -0.104033 0.033265 0.076151 -0.244958 -0.039462 -0.179404 -0.233145 -0.241315 -0.205072 -0.572585 -0.523622 -0.409611 0.110966 0.054904 0.010601 0.032588 -0.021962 0.040298 0.295657 -0.247041 0.011704 -0.235885 0.128517 0.568313 0.280049 -0.179291 -0.032451 0.322626 0.193069 -0.362766 0.049730 0.407448 -0.042221 0.190170 -0.040498 -0.090659 0.073219 0.110211 -0.419680 -0.514267 -0.309285 -0.053043 -0.243751 -0.005493 -0.475323 0.015877 -0.523721 0.198881 0.295630 -0.119129 -0.164852 0.052118 -0.587791 -0.096622 -0.062492 -0.059772 -0.424288 -0.007702 -0.218565 0.271896 0.089087 -0.045213 -0.135102 0.048571 -0.330839 -0.025990 -0.162833 0.059585 -0.070746 0.219367 0.017486 -0.035910 -0.397329 -0.343893 -0.448094 -0.547150 -0.405701 0.482424 0.142554
GCCT -0.032396 0.304306 -0.103692 -0.060664 -0.167125 0.129423 -0.369229 0.154284 0.118262 -0.119360 0.066467 0.218956 -0.594234 -0.020676 -0.632568 0.113031 0.215420 0.141163 0.088982 0.405904 0.148317 -0.219826 0.121805 -0.065085 0.143702 -0.132991 -0.244631 -0.001258 -0.025199 0.418119 -0.023474 -0.683726 -0.202904 0.098432 0.211719 0.161621 0.165226 -0.091924 -0.216730 0.632148 -0.162603 0.011683 -0.021984 -0.414428 0.049132 0.192027 -0.438042 0.250464 -0.384879 0.180468 -0.051131 -0.035666 0.246585 0.030379 -0.109185 -0.208400 -0.058154 -0.055967 0.195584 0.029568 0.260999 -0.416390 0.088489 -0.606465 -0.063620 0.134016 0.041206 -0.332569 0.018904 0.282873 -0.186299 -0.292660 0.165368 -0.081817 0.040138 0.024346 0.426562 -0.375377 -0.359928 0.092294 -0.247888 0.393023 -0.007454 -0.526384 0.024587 -0.086170 0.147667 0.053031 -0.555338 -0.469390 0.072377 0.137595 -0.127488 -0.098610 -0.046371 -0.030067 -0.123219 0.108798 0.603833 -0.087811
CGAA 0.136443 -0.089942 0.155392 -0.525939 -0.219140 0.198307 -0.115117 -0.010912 0.006357 0.029811 0.045956 -0.126819 0.285959 0.053649 0.195449 0.055728 -0.135345 0.317968 0.143956 -0.375818 -0.290696 -0.373572 -0.079921 0.178502 -0.056150 0.025543 0.195885 -0.245022 0.065541 0.372094 0.162151 -0.224571 -0.150643 0.156901 0.061423 -0.312353 0.051570 -0.590622 -0.228612 -0.004464 -0.245217 0.131707 -0.322747 -0.780759 0.228416 0.330768 -0.312633 0.044286 -0.069877 0.403358 -0.598331 -0.322683 0.210327 0.089195 0.501664 -0.317197 -0.132786 0.129923 -0.190149 -0.010701 -0.069240 -0.222393 0.153781 -0.037294 -0.516447 0.032175 -0.434089 -0.422676 0.271174 0.130171 0.163580 -0.354366 -0.276053 -0.230441 -0.134554 0.059856 0.050756 -0.261634 -0.020416 -0.311270 -0.462243 0.446161 -0.014876 -0.186921 -0.347170 -0.325824 0.158912 0.095852 -0.141018 0.391958 -0.105582 -0.398421 -0.197774 -0.077771 0.132579 -0.245838 -0.039440 0.368550 -0.158802 -0.085219
TTCG -0.061914 -0.185071 0.057047 -0.255255 -0.047501 0.287780 -0.550716 -0.228144 -0.030011 0.228957 0.219280 0.138110 -0.148317 -0.330445 -0.313005 0.524104 0.023289 0.045279 -0.326262 -0.627193 -0.207089 -0.590318 -0.096679 0.311129 -0.084314 -0.620857 -0.298325 0.037116 -0.026992 0.329084 0.278978 -0.007825 -0.280565 0.011415 -0.126401 -0.389044 -0.078587 -0.026883 0.028519 0.185194 0.035744 0.156190 -0.333503 0.040326 -0.077835 -0.245657 -0.584001 0.198106 0.254042 0.050298 -0.042562 0.047499 0.331253 -0.027674 0.250175 0.222249 -0.448844 0.133397 -0.185272 -0.217844 -0.381767 -0.500449 0.182084 -0.024462 -0.041810 0.231073 0.004955 0.345589 0.209130 -0.129333 -0.287199 0.147520 0.292680 -0.269751 -0.180508 -0.079364 0.451945 -0.110709 0.039170 -0.057926 0.418313 0.284338 -0.161328 0.136213 0.057595 -0.195401 0.402448 0.247663 -0.342748 -0.120361 0.267953 -0.223577 -0.069158 -0.130691 0.304082 -0.329487 -0.000780 0.019403 0.425551 0.195691
TCTG 0.245175 0.461254 -0.115349 -0.079945 -0.271766 0.272837 -0.216995 -0.017971 0.086913 -0.146130 -0.038466 -0.065169 0.129755 -0.013664 0.162139 -0.069618 0.062107 0.234044 -0.022051 -0.122931 -0.262204 0.147054 0.146972 -0.012250 -0.125941 -0.255191 0.040581 -0.255157 -0.361358 0.632186 -0.122821 -0.579809 -0.058359 -0.105290 0.012092 0.105497 -0.111915 -0.093812 -0.485802 0.124689 -0.140527 0.221920 0.347725 -0.274154 -0.105361 -0.452177 -0.003702 0.064080 -0.214924 0.260670 -0.231288 0.297325 0.059732 -0.706076 0.312178 0.249342 -0.521543 0.285219 -0.321925 -0.267659 -0.087278 -0.472810 0.549440 -0.027048 -0.263128 0.170728 0.076819 -0.051011 0.084470 -0.391746 0.307637 -0.301875 0.208819 -0.101479 -0.217242 -0.048162 0.172570 -0.072772 -0.121870 -0.044100 0.274070 -0.271142 0.088556 -0.194826 -0.142559 -0.369337 -0.197453 0.017576 -0.172585 -0.386135 0.134350 -0.154842 0.242172 0.339266 -0.038027 -0.108669 -0.010089 -0.106496 0.583735 0.002277
CAGA 0.043145 -0.199002 -0.127517 -0.109584 -0.430131 -0.147839 0.234462 -0.157592 -0.065580 -0.391022 0.329012 0.176570 -0.094688 0.146983 0.075639 0.329627 -0.055740 0.017870 0.014893 -0.621369 0.294537 -0.112967 0.072769 0.068523 -0.226198 0.113800 -0.316725 0.401916 -0.535356 -0.007370 0.082129 0.132144 -0.004336 0.006972 0.191224 -0.213270 0.123862 -0.088818 0.230375 0.677733 -0.274183 0.069248 0.094045 -0.172488 -0.050594 0.069876 -0.245315 0.068522 -0.131140 -0.134724 -0.692191 -0.233792 0.011415 0.251674 0.047765 -0.209891 -0.366450 0.191341 0.122053 -0.086941 0.050845 0.085116 0.134754 -0.101086 -0.284456 0.490327 -0.362830 -0.116639 -0.160329 -0.225023 0.032298 -0.206035 -0.146667 -0.384188 -0.186814 0.235755 -0.191541 -0.269592 0.276628 -0.054944 -0.152369 0.144934 -0.020200 -0.032737 -0.334350 -0.619338 0.078642 -0.295344 -0.812337 -0.256297 0.098727 -0.196816 -0.101002 0.154009 -0.290552 -0.092923 -0.264735 -0.074669 0.136998 0.212303
ACGC 0.177477 0.331093 -0.354279 -0.035006 -0.211308 -0.200908 -0.224125 -0.417846 0.134941 -0.072003 -0.019338 0.219901 -0.088183 -0.019181 0.316255 0.043842 -0.018849 -0.035110 0.317302 -0.466847 -0.106785 -0.462640 0.235076 -0.065809 -0.283304 -0.331553 -0.466430 -0.150519 0.366718 0.282698 -0.183642 0.015133 -0.267042 -0.289140 0.314906 -0.053344 0.077501 -0.223591 0.131613 0.359247 -0.109240 0.574768 -0.149619 0.025596 0.362852 0.057612 -0.231691 0.184015 -0.079073 -0.031027 -0.072117 -0.133174 -0.198167 -0.458657 0.367559 -0.044321 -0.505003 -0.181642 0.098776 -0.016552 0.071481 -0.142103 -0.290415 -0.250454 -0.410430 -0.352463 -0.098860 -0.187687 0.294682 -0.200586 0.149601 0.023418 -0.500006 0.013048 -0.400254 0.210287 0.315518 -0.405382 0.119093 -0.014906 -0.155249 0.289364 0.223938 0.003896 0.137930 -0.336626 0.045907 0.308736 -0.203782 -0.172327 0.492167 0.228329 -0.220670 -0.329099 -0.072667 0.308646 -0.334082 0.265994 0.325218 0.124003
GCGT -0.109670 0.283374 0.432139 -0.340663 -0.322070 0.722141 0.099057 -0.476966 -0.379023 0.025525 0.152052 0.111295 -0.137751 0.237497 0.161860 0.058600 0.250973 0.106642 -0.120179 0.022379 -0.050136 -0.129613 0.276458 0.085537 -0.041761 -0.106726 -0.178240 0.260240 -0.309011 0.366289 0.050792 -0.229845 0.006035 0.083241 -0.251189 0.208404 0.492167 -0.475903 0.297751 0.215659 -0.228925 -0.135826 -0.006990 -0.262046 -0.074251 -0.003288 -0.077744 0.471310 0.224073 -0.115263 0.020912 -0.128513 0.213867 -0.251462 0.132170 0.550113 -0.030824 0.048676 0.031023 -0.035276 -0.057763 -0.605284 0.265102 -0.355792 -0.088484 0.145411 0.248559 -0.333739 0.354309 -0.155391 -0.487403 -0.129399 -0.299970 -0.560786 0.357498 0.078586 0.196954 -0.460560 -0.025593 -0.255369 0.008535 -0.081326 -0.203398 0.210217 0.121459 -0.265841 -0.012373 -0.212676 -0.255398 -0.086672 0.058314 -0.131839 -0.178160 -0.274633 -0.339110 -0.137927 0.200618 0.403639 0.324352 -0.395214
AAAC 0.114641 -0.053620 0.170285 -0.194408 -0.854504 -0.171576 -0.232301 -0.082116 0.053088 0.137584 0.021722 -0.454288 -0.196239 -0.377109 0.037840 0.078808 0.100211 0.089007 -0.313529 0.019733 -0.046786 -0.114017 0.359926 0.409916 -0.100678 0.177717 -0.084156 -0.180797 0.101166 -0.126273 0.215238 -0.090193 -0.503993 -0.197886 -0.011928 0.208657 0.039528 -0.463388 0.207964 0.223674 -0.171064 0.306499 -0.097967 0.051099 0.320891 -0.070862 0.030811 -0.036676 -0.086720 -0.002620 -0.370245 0.132013 -0.078633 -0.275988 0.179561 -0.365143 -0.322697 0.452554 0.423506 0.159318 0.007321 -0.302933 0.020961 -0.100183 -0.282582 -0.202926 -0.016560 -0.348819 0.108695 -0.009536 -0.086055 0.094566 0.038102 -0.414097 0.111889 -0.191734 0.447284 -0.646205 0.179820 0.208733 -0.129241 -0.248879 0.086829 -0.129591 -0.205216 -0.340655 -0.170708 0.334833 -0.373624 0.012139 -0.015385 -0.452734 -0.102641 -0.326807 -0.318422 -0.040043 0.281898 0.037679 -0.114496 -0.382279
GTTT 0.131042 0.163439 -0.078735 -0.096717 -0.145387 0.290626 -0.281510 0.273597 -0.471706 0.034132 -0.188778 -0.139533 0.023525 -0.158710 0.023195 0.344196 0.051113 0.111404 0.239240 -0.182151 0.224673 -0.233134 -0.337062 0.164638 -0.152668 -0.210553 0.353381 0.107319 -0.338931 0.367931 -0.280734 -0.272584 -0.362999 -0.079354 0.012172 0.602021 0.115703 -0.105672 0.185798 0.430066 0.217490 -0.186263 -0.485665 -0.349894 -0.005949 0.277802 -0.346406 0.247454 -0.322064 0.242116 -0.272758 0.178062 -0.360534 -0.013275 -0.191355 0.658127 -0.260181 -0.045852 0.447756 -0.114488 -0.002785 -0.019452 0.144574 -0.263350 -0.160685 0.041611 -0.060758 -0.129523 0.117739 -0.152795 0.068762 0.140179 0.296153 -0.429759 -0.159112 0.101383 -0.063377 0.083911 -0.007288 -0.291905 0.232428 0.224616 0.262090 -0.009704 -0.271616 -0.215184 0.085090 0.121213 -0.195017 0.019170 0.050381 -0.365438 -0.118937 -0.492813 0.183811 0.091655 0.071355 0.232730 0.441852 -0.026668
GAGC 0.119806 -0.076439 -0.090193 -0.058317 0.072747 -0.091418 -0.657255 0.053278 -0.030673 -0.384986 0.187372 0.131197 0.112549 0.184718 -0.071033 0.270947 -0.183105 -0.148116 0.045075 -0.402671 0.335720 -0.009607 0.242050 0.145839 -0.112735 0.307315 -0.351288 -0.329203 -0.096795 0.196758 -0.042599 -0.249661 0.146605 0.000023 0.121352 -0.023739 0.201130 -0.052871 -0.358069 -0.005465 -0.099602 -0.431854 -0.515920 0.120313 0.171567 0.248053 -0.299738 -0.138942 0.074379 -0.066658 0.010815 -0.115895 -0.049179 -0.559766 0.243815 0.108773 -0.296427 0.097504 0.088944 -0.309003 0.219959 -0.615708 0.124623 0.224235 -0.244780 -0.375739 0.057070 -0.318408 0.728303 -0.144499 -0.111842 0.189698 0.192623 -0.338140 0.199951 0.151297 0.207333 -0.539534 -0.343927 -0.295372 0.057840 0.225516 0.075035 0.031980 -0.361575 -0.076440 -0.335757 0.004611 -0.316074 -0.187533 0.263308 0.080228 -0.315911 -0.022442 -0.312541 -0.086812 -0.198859 0.409633 0.305548 0.169153
GCTC -0.110226 0.065908 -0.290699 -0.158718 -0.404248 0.303527 -0.487452 -0.525041 -0.307187 -0.044054 0.259182 -0.106368 -0.638443 0.214661 -0.399895 -0.063423 -0.051843 0.223488 0.093404 0.024585 0.142265 -0.163860 -0.004648 0.326020 -0.295988 -0.274846 0.133033 0.099081 -0.455503 0.038087 -0.001591 -0.251576 0.085219 -0.178893 0.385335 -0.118350 0.297921 -0.050644 -0.017010 0.135528 -0.393200 0.028364 -0.632715 -0.248554 0.501672 0.563156 -0.157417 0.269353 0.121457 -0.217115 -0.020749 0.382829 0.280545 0.135041 0.095174 0.333228 -0.173160 0.028356 -0.197051 -0.133495 -0.135543 -0.242663 0.090720 -0.114871 -0.016335 0.095665 0.255034 -0.001216 -0.031787 0.131354 0.365767 -0.261788 -0.260898 -0.396754 -0.283962 0.068375 0.384644 -0.261951 0.208708 -0.076891 -0.386484 0.063403 0.068835 -0.436797 0.123298 -0.169449 -0.137251 0.227136 0.046080 -0.412140 0.200396 0.023761 -0.347643 0.201997 -0.072752 -0.192933 -0.060139 0.441965 0.038443 -0.076426
AAGA 0.107330 0.092346 0.262458 -0.100333 -0.639060 -0.028171 0.047028 -0.218565 -0.113671 -0.332359 0.408987 -0.223108 -0.038135 -0.031489 -0.026200 0.327228 0.053448 -0.019468 -0.103225 -0.458950 0.191816 -0.221662 0.342125 -0.019807 -0.291709 0.353252 -0.214801 0.103217 -0.136608 -0.207687 0.077844 -0.054848 0.031194 -0.025940 0.147281 -0.052841 0.049010 -0.080942 0.133889 0.506811 -0.042590 0.298561 -0.078954 -0.380374 0.144958 0.063469 -0.379360 -0.022953 0.156655 0.144896 -0.546686 0.194721 0.486943 -0.011565 -0.372753 -0.192236 -0.257127 0.103000 0.125855 0.237567 -0.224470 0.031452 -0.134538 0.331984 -0.204123 0.336778 -0.387494 -0.116892 0.084167 0.290557 0.230835 -0.116342 0.023557 -0.160009 -0.182273 -0.039554 0.086985 -0.253220 -0.292594 -0.117526 -0.063575 -0.055724 0.112434 0.104190 -0.212028 -0.615293 0.063038 -0.032992 -0.258939 0.077506 0.277017 -0.105386 -0.504029 -0.245030 -0.117452 0.155660 -0.205864 0.268263 0.076692 0.298985
TCTT 0.355176 0.221237 -0.158983 -0.058430 -0.195440 0.159538 -0.478079 0.334635 -0.108373 -0.021774 0.015961 0.208209 -0.148680 0.029456 -0.245804 0.248298 0.459953 0.429809 0.196995 0.125066 -0.072025 0.164860 0.100825 0.110059 -0.067635 -0.132277 0.289039 -0.126579 -0.162132 0.235129 0.065301 0.001641 -0.168670 0.006053 -0.237500 0.203273 -0.013919 -0.159422 0.239058 0.282683 -0.090632 0.334558 -0.174816 -0.236902 -0.333058 0.130684 0.052447 -0.077375 -0.164718 0.157512 -0.312938 -0.019674 0.181082 -0.160951 0.436524 0.578567 -0.252899 0.514508 0.064282 -0.439968 -0.228423 -0.512282 0.308086 -0.058879 -0.303741 -0.013910 -0.034704 0.125538 0.137375 -0.309350 0.095885 -0.453348 0.158771 0.258793 -0.128019 0.212235 0.435565 0.048713 -0.092043 -0.034290 0.031268 0.094952 0.045365 0.091173 0.238115 -0.322079 0.267614 0.174626 0.035534 -0.270461 0.185222 -0.270857 0.071416 0.053998 -0.191710 -0.203832 -0.088526 -0.154844 0.517907 0.182093
ATAA 0.180606 -0.005580 -0.299498 -0.259650 0.082138 -0.069528 -0.276812 -0.235231 0.165200 -0.149306 0.194389 -0.355436 -0.067895 0.121858 0.223345 -0.087786 0.392172 0.304680 -0.306224 -0.234505 0.324004 -0.577022 0.218970 0.254031 0.307391 0.065677 -0.259015 -0.428047 0.034455 -0.315792 0.051127 -0.058703 -0.393701 0.027495 0.276844 -0.256611 0.170431 -0.323206 0.074739 0.131878 -0.141869 0.193487 -0.255557 -0.430375 0.158855 0.101406 0.031548 -0.142049 -0.084308 0.003318 -0.398817 0.023801 0.071193 -0.023854 0.079887 0.154087 -0.183841 -0.032939 -0.311167 -0.160046 0.045892 -0.215739 0.152247 0.102787 -0.083250 0.031562 -0.043409 -0.099965 0.167238 -0.239722 0.333357 -0.298921 -0.105564 -0.226809 -0.034371 0.008238 0.133362 -0.480036 0.125602 0.097483 0.305470 0.060270 0.143608 -0.413945 -0.202821 -0.231217 0.270753 -0.083792 -0.085242 0.221338 0.208549 -0.107483 0.113434 -0.585688 -0.089624 0.305538 0.362420 -0.304815 0.265909 0.095711
